0.136695,0.194696,0.208534,0.0457558,-0.634445,0.149565,-0.327363,0.159054,-0.0357429,0.887838,0.39021,-0.527068,0.138123,0.0763907,0.244828,0.927629,0.355624,-0.386569,0.244397,0.354365,-0.231532,-0.293254,0.00345741,-0.0204914,-0.156408,-0.429008,-0.342879,-0.00636407,0.347418,0.687686,0.164235,0.830579,0.382987,0.245705,-0.668147,-0.540647,0.198674,0.153785,0.230232,-0.558631
-0.0720728,0.423719,0.0300057,0.0897733,-0.421924,0.175136,-0.46514,0.278165,0.0604767,0.517671,0.411491,-0.231702,0.101131,-0.0440073,0.173962,0.60952,0.0904298,-0.392744,0.196781,0.366421,0.109523,-0.365283,0.132833,0.126596,0.183322,-0.309945,-0.264786,-0.0683445,0.444006,0.442896,0.310741,0.786961,0.391182,0.305387,-0.502706,-0.563677,0.00714604,0.0367812,0.301291,-0.338041
-0.207451,0.199569,-0.166044,0.253551,-0.383402,-0.159541,-0.418368,0.160836,0.0972142,0.446813,0.655258,-0.566928,-0.137763,0.130535,0.235148,0.301957,-0.181154,-0.596501,0.031695,-0.0235731,0.389345,-0.642609,-0.133261,0.356716,0.355996,-0.522524,-0.310264,0.00519555,0.61236,-0.271883,0.213797,0.485319,0.594923,-0.161921,-0.262992,-0.569568,0.0056736,-0.137538,0.336344,-0.285665
-0.644659,0.23263,-0.0237575,0.126805,-0.456485,0.0380375,-0.53346,0.0512493,0.0132646,0.583768,0.459036,-0.186526,0.0650512,0.093451,0.186756,0.809779,-0.0825057,-0.51628,-0.00333228,0.111029,0.0515898,-0.208961,-0.157459,0.258181,0.212407,-0.178271,-0.237311,0.0498545,0.639871,0.234702,0.262939,0.137343,0.520096,0.272618,-0.312824,-0.612218,-0.0202889,-0.146954,0.103904,-0.417271
-0.398677,0.553928,-0.142636,0.300424,-0.638396,0.189189,-0.500621,-0.19402,-0.203451,0.335502,0.493372,-0.02949,-0.580008,-0.00359543,0.206807,0.393738,-0.355504,-0.0549062,0.55819,0.0411476,0.727421,-0.428181,-0.391063,0.450882,0.338994,-0.233228,-0.392163,0.152005,0.43483,-0.378121,-0.312883,0.0229902,0.832157,0.290713,-0.259116,-0.756642,0.0951347,0.465106,0.406804,-0.58592
-0.168087,0.324552,-0.234825,0.096556,-0.464204,0.23022,-0.638901,-0.333637,-0.0641343,0.387474,0.659028,-0.637624,-0.397,0.287932,-0.157762,0.486204,-0.0903495,-0.224535,0.351147,-0.0538284,0.333998,-0.624646,-0.615163,0.207902,-0.108821,-0.243232,-0.443557,-0.334063,0.552433,-0.317136,-0.285275,0.298506,0.576593,0.269676,-0.252247,-0.551992,0.104374,0.0674332,0.105837,-0.733846
0.12332,0.109875,-0.482624,0.0670943,-0.0995423,-0.113294,-0.620018,-0.308129,0.052944,0.142097,0.526231,-0.552362,-0.0922531,-0.135345,-0.0527477,0.16804,0.0201435,-0.319076,-0.0535372,0.246912,0.100123,-0.432932,-0.0703934,0.281577,0.0945396,-0.240171,-0.170625,-0.365243,0.448879,0.0341293,0.162053,0.614896,0.166563,0.0480714,-0.239653,-0.373573,-0.244457,-0.13151,0.29054,-0.17481
-0.286286,0.306119,-0.524662,-0.125768,-0.0350418,-0.259931,-0.601893,0.0598189,-0.337048,0.128976,0.427966,-0.381769,-0.222244,-0.355907,0.465348,0.0374452,-0.134537,-0.5036,0.0490105,-0.247056,0.556895,-0.380016,0.398661,0.544449,0.628576,-0.430563,-0.482448,-0.302175,0.227159,-0.27213,0.238507,0.415969,0.42355,0.0280294,-0.0817731,-0.97241,-0.7163,-0.0213088,0.383456,0.105534
-0.204013,-0.0736999,-0.287095,-0.366089,0.0777426,-0.125726,-0.168145,-0.200626,-0.109304,-0.329736,0.426751,-0.346547,-0.818232,0.0332667,0.487927,0.213115,-0.286082,0.55996,0.158837,-0.095872,0.410033,-0.928491,0.172234,0.264594,0.0660911,-0.498625,0.0238964,0.171681,0.0943041,-0.221749,-0.016829,0.18072,0.790402,0.0185689,0.13434,-0.809079,-0.0667583,0.211789,0.124709,-0.211064
0.235158,-0.0331958,-0.181338,0.000873737,-0.179463,0.16972,-0.103231,-0.27314,-0.162484,-0.0517148,0.172766,-0.33419,-0.819738,0.397983,0.41639,0.616901,-0.172899,0.355691,0.296226,-0.257065,0.0481621,-0.690933,-0.202819,0.0909085,-0.121196,-0.137386,-0.149141,0.399031,0.374179,-0.142769,-0.369108,-0.042174,0.73845,0.153819,-0.154946,-0.576076,0.317711,0.222105,0.147514,-0.372674
0.179693,-0.207967,0.0517267,-0.192531,0.113167,0.0602627,-0.228664,-0.0640017,0.311261,0.0709216,0.218832,-0.710054,-0.89563,0.419154,0.28502,0.788012,0.124539,0.013484,0.224582,-0.198551,0.108659,-0.837609,-0.139524,-0.16548,-0.254965,-0.408686,0.0259268,0.0170039,0.0311131,0.325518,0.0328943,0.219168,0.239388,0.0870671,0.00549344,-0.603902,0.168922,0.259895,-0.12118,-0.499853
-0.0595288,-0.211876,-0.0592867,-0.0377415,0.163798,0.0229905,-0.372384,-0.0560142,0.101035,0.12691,0.571657,-0.263091,-0.83469,0.719764,0.303148,0.817338,-0.110863,0.409648,0.220216,-0.595429,-0.0342426,-0.86271,-0.068429,0.0698841,-0.0108931,-0.557034,0.0556173,-0.0352295,0.153895,0.588696,-0.336475,0.263772,0.422524,0.548342,0.111844,-0.787719,0.165417,0.104823,-0.158837,-0.708326
0.425407,-0.0704326,-0.331328,0.310821,0.201322,-0.244997,-0.605348,-0.343671,0.291595,0.363422,0.678823,-0.385675,-0.196096,0.350514,0.141957,0.714006,-0.371218,0.0500002,0.144985,-0.487805,-0.768884,-0.500673,0.228756,0.191258,0.108194,-0.535069,-0.0614574,-0.0862833,0.0590076,1.00306,-0.202076,0.869265,-0.0701943,0.137956,0.195805,-0.524518,-0.16773,0.153667,-0.0191023,-0.477609
0.504621,0.0449214,-0.491116,0.479863,-0.165619,0.17503,-0.113406,-0.265083,0.256856,0.285797,0.118628,-0.724359,-0.533724,0.434244,-0.218893,0.188295,-0.731852,-0.0336229,0.244662,0.0808629,-0.593526,-0.235705,0.0175458,0.121112,0.104908,-0.397886,0.0999116,0.453449,-0.18349,0.383901,-0.549647,0.448763,0.0922583,0.111444,-0.0948739,-0.217521,-0.0648523,0.510177,0.0800858,-0.252246
0.81854,-0.186121,-0.185238,0.668269,0.126481,0.275963,-0.0861182,-0.249058,0.357541,0.255216,0.185713,-0.918106,-0.669234,0.60816,-0.382358,-0.0937539,-0.797507,0.0225306,0.306176,-0.0120516,-0.492764,-0.59677,-0.261159,0.277041,-0.0617272,-0.618735,-0.00403405,0.316771,0.108434,-0.142518,-0.551408,0.802782,0.249164,-0.341043,0.184931,0.237012,0.442946,0.373682,0.107762,-0.065212
1.10063,0.0975093,0.0461988,0.212208,-0.24205,0.359367,0.155928,-0.404801,0.415299,0.45411,0.0443331,-0.747717,-0.548481,0.0633359,-0.658351,-0.117881,0.162623,0.0503718,0.357575,0.223804,-0.974734,-0.498435,-0.409822,0.0114627,-0.645608,-0.154741,0.374235,0.600403,-0.247944,0.174991,-0.597417,0.784432,0.457908,-0.669976,-0.115921,0.965835,0.326415,0.497564,0.393936,0.00746064
0.0185965,0.242499,-0.0285704,-0.231442,-0.164769,0.0664983,-0.183794,0.154354,-0.0820647,0.594918,0.351867,-0.0608856,0.112685,-0.112376,0.339661,0.537065,0.10977,-0.25619,0.177302,-0.231379,0.18484,-0.322217,0.216292,0.0321228,0.0510772,-0.17287,-0.0925158,0.0782369,0.291253,0.325182,-0.0556386,0.44219,0.320385,0.0274571,-0.33029,-0.435933,-0.047185,0.0451722,0.28632,-0.277757
-0.237299,0.0721677,-0.235634,-0.232739,-0.000227992,-0.00939315,-0.206763,0.243003,-0.0735111,0.451551,0.699256,-0.176966,0.108005,-0.106628,0.411781,0.354695,0.159645,-0.337919,0.0497828,-0.33025,0.127448,-0.737801,0.367946,0.0485302,0.0677963,-0.253957,0.325237,0.102959,0.0572906,0.511325,-0.0346903,0.260784,0.336274,0.0244919,-0.0631421,-0.549009,-0.260719,-0.0977563,0.160117,-0.299031
-0.00868832,-0.102077,0.0217357,0.255745,0.239018,-0.157951,-0.300116,-0.282782,-0.200531,-0.129624,0.396664,0.276474,0.00456486,0.438666,0.171857,0.191258,-0.0754103,0.624475,-0.0354719,-0.31905,0.150474,-0.0747928,-0.188414,0.115292,0.116963,-0.124962,-0.209785,-0.12653,0.290185,0.23915,-0.253836,-0.0553178,0.00420451,0.334297,0.16706,-0.610434,-0.121921,-0.148565,-0.233698,-0.148888
-0.330855,-0.125876,0.186796,0.113266,-0.149732,0.115462,-0.364595,-0.168496,0.0327384,0.432011,0.791765,0.0237615,-0.130203,-0.0110387,-0.0393984,0.479349,0.243328,-0.308077,0.0661671,0.117924,0.138876,-0.260805,-0.191978,0.076716,-0.173617,-0.168109,-0.195385,0.0711056,0.0626243,0.273793,-0.23915,0.128628,0.255481,-0.0464851,-0.209447,-0.374935,-0.0794254,0.181651,0.0328158,-0.302565
-0.269042,0.41243,0.0146325,0.219218,-0.239835,0.396689,-0.178025,-0.366411,-0.0651592,0.303811,0.689605,-0.139903,0.078298,0.139459,-0.19128,0.43269,-0.372519,-0.319616,0.181728,0.552811,0.104096,-0.160188,-0.346803,0.150733,0.0752431,0.0666811,-0.282483,-0.301239,0.228366,0.109346,-0.137688,0.170494,0.400785,-0.0213733,-0.178451,-0.172878,-0.00214178,0.313779,0.295222,-0.193047
-0.344904,0.349446,-0.107441,0.102934,0.0181911,0.562061,-0.365729,-0.0447969,0.175187,-0.0205828,0.430122,-0.530486,0.0341051,0.222061,0.0465652,0.246543,-0.0746637,-0.183112,0.197098,0.0186564,0.23563,-0.307274,-0.201736,0.229546,0.166393,-0.136476,-0.0116171,-0.234313,0.371863,-0.46681,0.0572663,0.330371,0.328191,0.161399,0.174579,-0.162121,0.0970776,0.0776813,-0.0480926,-0.275733
-0.338032,0.536388,-0.415945,-0.0469559,-0.590691,0.408398,-0.543339,-0.0160381,-0.128443,0.425063,1.00653,-0.659504,-0.0904322,-0.141478,0.0926724,0.540846,0.0793245,-0.388252,0.0437245,0.000989433,0.345585,-0.574015,-0.167395,0.352803,0.0588284,-0.218095,-0.435828,-0.340597,0.442911,-0.239532,-0.015518,0.431357,0.620307,0.202369,-0.267431,-0.40955,0.0648427,-0.0137261,0.116018,-0.394862
0.00369033,0.420379,-0.502343,0.0163308,-0.0356893,0.317179,-0.732453,-0.259195,0.121965,0.118929,0.804938,-0.818545,0.0389585,0.434137,-0.0271992,0.793641,-0.176273,0.373766,0.148578,-0.367548,-0.0498539,-0.322704,-0.158901,-0.0613358,-0.130689,-0.475542,0.0980057,-0.290565,0.291905,0.274902,-0.161392,0.154734,0.306193,0.5439,0.175192,-0.634338,0.0910341,-0.0490754,-0.295825,-0.327478
-0.291987,0.203578,-0.389252,0.0421192,-0.153362,0.384613,-0.484038,-0.48919,-0.0157583,0.369546,0.569529,-0.181805,-0.26594,0.181834,-0.154823,0.356868,-0.292671,0.148954,0.154535,0.199294,-0.192374,-0.461877,-0.429608,0.213862,-0.0956643,-0.252098,-0.199126,-0.220704,0.0995244,0.20911,-0.195086,0.378667,0.310528,0.150051,0.126496,-0.311704,-0.0543384,0.0140451,-0.352299,-0.155615
0.271771,0.251687,-0.675999,0.046776,0.135148,0.29434,-0.440045,-0.311026,0.334775,0.113028,0.0427856,-0.0977701,-0.148203,-0.246378,-0.00171091,0.176689,-0.353395,-0.273612,0.236436,-0.731153,0.0797637,-0.146189,0.120156,0.210702,0.353044,-0.513527,0.263945,-0.132592,-0.0685132,0.213924,-0.193655,0.483504,0.179073,-0.101967,0.270874,-0.472836,-0.287907,0.164284,-0.163169,-0.131378
0.294764,-0.153646,0.131251,-0.0497537,-0.275335,0.615964,-0.0343734,-0.0877558,0.470183,-0.0809906,0.0279649,-0.381998,-0.568015,0.298023,-0.31764,-0.169827,-0.0303836,0.0701895,0.306596,-0.324633,0.162517,-0.108678,-0.417127,-0.182392,-0.157409,-0.366087,0.567546,0.116453,-0.000683603,-0.0419044,-0.497639,0.00104468,0.0897882,0.203847,-0.163138,-0.261725,0.124901,0.228159,-0.22694,-0.323055
0.256371,-0.219674,-0.187441,0.130434,-0.107406,0.282861,-0.128737,0.0596458,0.00686839,-0.143498,0.448891,-0.08475,-0.191158,0.124922,-0.18578,-0.152754,-0.279186,0.280676,0.159449,-0.345697,-0.350023,-0.452361,-0.364693,0.0439944,0.198844,0.172038,0.0516221,-0.174965,0.0387565,0.302321,-0.380644,0.387712,0.123903,0.307346,0.0559363,-0.163373,-0.0597378,-0.0257037,0.320662,-0.400497
0.358862,0.0842954,-0.0563197,-0.00489061,-0.439531,0.180835,0.229789,-0.0771339,-0.0909537,0.301643,0.200929,-0.453016,-0.253133,-0.114589,-0.260017,0.00522572,-0.097072,-0.0205307,0.322751,-0.0833764,-0.0254233,-0.380738,-0.357556,0.151493,-0.00122599,0.26719,0.274765,0.347596,-0.310126,0.321434,-0.276754,0.195984,0.343136,-0.275041,-0.155019,0.152365,-0.0417766,0.0632165,0.362246,-0.209266
-0.0574402,0.0779721,0.0311148,0.349887,0.00589623,0.249584,0.0613229,-0.129917,-0.184508,-0.429188,-0.450152,-0.140195,-0.324702,-0.0879543,-0.599966,-0.622737,-0.143202,-0.130374,0.123551,0.109754,0.625289,0.111764,-0.32005,0.155611,0.31613,0.312171,-0.00590749,0.0700045,-0.00671422,-0.415022,-0.0602753,-0.134899,0.0427219,-0.511466,0.326167,0.341321,0.0441631,-0.167565,-0.0604232,0.216331
-0.753373,0.0918797,0.00365831,-0.35651,0.146347,0.118383,-0.221967,0.618608,-0.0596829,0.0387838,-0.228338,-0.470744,-0.487066,-0.155452,-0.0926046,0.0437906,0.0529417,-0.548324,0.195056,-0.171139,0.780579,-0.216466,-0.23387,0.219062,0.20184,-0.25231,0.040722,0.0650437,0.206925,-0.533049,-0.00500831,-0.353543,0.153604,-0.348153,0.208817,-0.114979,-0.18424,-0.274469,0.0677526,0.100453
0.0766115,-0.205689,-0.173638,-0.204628,0.166487,0.181162,-0.102005,0.378544,-0.140019,-0.121264,-0.39569,0.0457606,-0.185824,-0.136342,0.0267525,0.0861769,0.21277,-0.0201647,0.144773,0.0815503,-0.111407,0.0544472,-0.0279618,-0.44627,-0.00909339,-0.196679,0.0607135,0.0193202,-0.222754,-0.139495,-0.268729,-0.133107,-0.328806,0.19465,0.128264,-0.512328,-0.144876,-0.0771485,-0.21598,-0.223692
0.36941,-0.187465,-0.00703345,0.0863717,-0.39565,0.0217499,-0.0605369,-0.279048,-0.383118,0.539482,0.736359,-0.259668,0.013572,0.21805,0.470404,0.531483,0.111447,0.0685218,0.152618,0.140392,-0.426207,-0.662991,0.2335,-0.288509,-0.370858,0.176161,-0.368374,-0.0288953,0.320702,0.767333,-0.317886,0.651145,0.406733,0.200404,-0.568298,-0.5648,-0.0440737,0.305307,0.199145,-0.483318
-0.32801,-0.185917,-0.0601401,0.0273371,-0.0947272,0.0200224,-0.348657,-0.051356,-0.254033,0.175111,0.659686,-0.433172,0.110433,0.41184,0.292365,0.461482,0.00576051,-0.116039,0.0352804,-0.16028,-0.15593,-0.209701,-0.0926378,-0.248517,-0.227613,-0.183958,-0.137982,-0.151747,0.177069,0.364728,-0.265458,-0.2114,0.098764,0.418414,-0.147087,-0.721015,0.0658015,0.179427,-0.437881,-0.575003
0.167978,-0.418829,0.35127,-0.0867158,-0.0970985,0.232189,-0.0753193,0.139418,0.157954,-0.0701801,0.343838,-0.506408,0.143475,0.617772,0.155818,0.509569,0.154228,0.760277,-0.00495223,0.0404367,-0.0567127,0.0892211,-0.284617,-0.284008,-0.477761,-0.600562,0.219067,-0.0979469,0.0398441,0.160716,-0.270897,-0.223193,0.00548485,0.821784,-0.0165623,-0.477603,0.361064,0.0503002,-0.608355,-0.441172
0.0559454,0.155678,0.06945,-0.0366629,-0.0144705,0.325008,-0.272381,-0.0430414,0.19097,0.298052,0.539472,-0.0344473,0.086519,0.0558272,-0.136281,0.527514,0.182662,-0.0322833,0.078638,-0.0617376,-0.105487,-0.0442508,-0.271397,-0.0497863,-0.172475,0.0687106,0.0818116,-0.13879,0.141305,0.559864,-0.288336,0.247826,0.242356,0.161019,-0.0335857,-0.277077,0.0052502,0.0717189,-0.103552,-0.382664
-0.153656,0.226034,0.107117,0.187075,-0.169401,0.295056,-0.503935,-0.30407,0.0622714,0.283342,0.601428,-0.355117,0.141118,-0.0706379,-0.237528,0.356578,0.0698231,-0.475626,0.0705611,0.247387,0.27321,-0.133965,-0.386037,-0.128846,0.0157561,-0.150671,-0.288483,-0.459204,0.178153,0.0884814,-0.238788,0.108252,0.208931,0.00579937,-0.210135,-0.20084,0.115536,0.0826014,-0.209869,-0.207027
-0.336666,0.355238,-0.228406,0.296714,-0.25958,0.34481,-0.557447,-0.277643,-0.109569,0.0200012,0.512505,-0.099271,0.0205929,0.196325,-0.131324,0.440305,-0.182011,0.435914,0.0922311,-0.0113914,0.0534842,-0.165966,-0.665562,-0.127607,-0.0581336,0.104661,-0.232518,-0.301538,0.203699,-0.199168,-0.357791,0.00221483,0.180343,0.577911,0.0159233,-0.35152,0.352654,0.0944691,-0.306222,-0.286393
-0.635483,0.472459,0.238468,0.359098,-0.521732,0.634458,-0.266639,-0.126413,-0.0624723,0.0593056,0.690658,-0.295838,0.101413,0.32984,-0.235178,0.475061,-0.0035669,0.256052,0.289506,0.107554,0.3963,-0.167399,-0.866665,-0.0610935,-0.0850096,-0.00180597,0.0685628,-0.035522,0.79364,-0.234995,-0.320579,-0.249685,0.578776,0.401518,0.099875,0.153904,0.614775,0.0224067,-0.267726,-0.189813
-0.360445,0.352459,0.0389348,0.317794,-0.354083,0.508136,-0.340583,-0.211235,0.13901,0.131953,0.641492,-0.503383,0.0865478,0.293761,-0.281359,0.0490965,-0.0541008,-0.0913462,0.18253,0.174459,0.34343,-0.323218,-0.534071,0.0402641,-0.0920206,0.0239604,-0.143904,-0.337078,0.344259,-0.259856,-0.0145224,0.0320308,0.108938,0.111333,-0.0942844,0.116378,0.448456,0.136677,-0.0451226,-0.285273
-0.525004,0.516964,0.293026,0.313429,-0.230569,0.663629,-0.281238,-0.359966,0.169588,0.196698,0.242135,-0.20092,0.249065,0.347923,-0.424824,0.38956,-0.0890355,0.183688,0.220837,-0.0684128,-0.165597,0.0504214,-0.918539,-0.12213,-0.151872,-0.201627,-0.0712796,-0.226766,0.767569,-0.419494,-0.294796,-0.580646,0.365686,0.372032,-0.0988899,-0.206558,0.486982,-0.0421401,-0.490426,-0.265522
0.347075,0.272438,-0.0474982,0.523727,-0.32703,0.577463,0.207635,-0.412374,0.16367,0.507415,-0.0531331,-0.678729,0.270077,0.524136,-0.280742,0.00188724,-0.394378,0.00892571,0.290288,-0.0313432,0.0800279,0.0829374,-0.787957,0.205256,-0.108159,-0.591109,-0.0149091,0.142363,0.484524,-0.634836,-0.374588,0.17531,0.618088,-0.334965,-0.267378,0.0582539,0.522261,0.127116,0.0721477,-0.204914
-0.342728,0.265187,-0.132229,-0.077708,-0.0100719,0.385452,-0.576962,0.434159,-0.0513826,0.373068,0.0468354,-0.245349,0.113309,-0.142406,-0.373106,0.493951,-0.0176574,-0.300945,0.148569,0.078,-0.250847,0.263488,-0.605061,-0.0851115,-0.0151591,-0.297023,0.175827,0.0325909,0.416577,0.181584,-0.0477045,-0.218095,0.0848698,0.178909,0.0522462,-0.190261,0.148815,-0.35044,-0.338214,-0.558339
-0.512329,0.100438,0.0490057,-0.0446148,-0.449386,0.34966,-0.33615,0.311678,-0.316733,0.439993,-0.0268093,-0.0744018,0.288264,-0.0622797,-0.343952,0.432018,-0.14868,-0.355063,0.197061,0.168473,-0.119083,0.0413641,-0.691965,0.0652628,-0.0743822,-0.00179141,-0.0960307,0.0150708,0.335208,-0.205223,-0.143598,-0.312321,0.521566,0.251209,-0.165265,-0.0898069,0.141911,-0.184269,0.327632,-0.580574
-0.109064,0.0143199,0.229701,-0.395336,0.346748,0.143182,-0.109412,0.39065,-0.233562,-0.0492752,-0.157138,-0.227684,-0.172079,-0.126657,-0.348366,-0.0722564,0.0525465,0.186435,0.160944,-0.229358,0.091179,-0.20303,-0.667231,-0.142892,-0.17362,-0.20176,0.26103,0.142803,0.164345,-0.11691,-0.284039,-0.283647,0.375357,0.0345344,0.383566,-0.0208438,0.351549,-0.43973,-0.183544,-0.0770639
-0.298169,0.124976,0.0627601,-0.16391,-0.199073,0.209745,-0.126305,0.30356,-0.197152,0.49116,-0.262614,-0.319466,-0.3834,-0.220791,-0.104818,0.189618,0.260657,-0.29947,0.346294,-0.225687,0.468198,-0.208214,-0.412539,-0.0442428,-0.013881,-0.417592,-0.0331607,0.216011,0.0788209,0.0453288,-0.179657,0.100791,0.431044,-0.00215873,0.0407524,-0.561299,-0.00753589,-0.190821,0.149283,-0.0991833
-0.593733,-0.0127122,-0.238831,-0.202215,0.0910516,0.17928,-0.283985,0.504037,-0.266705,0.0794079,0.086985,0.131999,-0.32373,-0.0694122,0.111024,-0.0364188,0.271604,0.220268,0.217086,-0.0623109,0.341137,-0.346864,-0.226866,-0.00547722,0.0415934,-0.271535,0.107712,0.018064,0.368361,-0.170612,-0.210485,-0.187512,0.434738,0.341965,0.286761,-0.498601,-0.21186,-0.265129,-0.20101,-0.308852
-0.263159,-0.219928,-0.30102,-0.595014,0.0934698,0.0405812,0.0105179,0.468506,-0.112845,0.104053,0.67709,0.0232631,-0.757744,0.0903252,0.692864,0.504186,0.255224,0.17849,0.170117,-0.244244,0.549409,-0.98782,0.285395,-0.164426,-0.0121947,-0.298183,0.168077,0.160721,-0.0267117,0.123244,-0.276392,0.10446,0.0957044,0.43096,0.254542,-1.06512,-0.271084,0.367476,0.0585267,-0.385014
-0.12804,-0.266051,-0.321641,0.187998,-0.240604,0.149907,0.0188816,-0.197267,-0.258524,0.0410533,0.259248,0.240734,-0.141069,0.207213,0.231682,0.169245,-0.205088,0.448062,0.14696,-0.145334,-0.212337,-0.356621,0.0638548,-0.154962,-0.101803,0.410596,-0.227122,0.0322486,-0.00556315,0.234589,-0.423947,-0.318673,0.186839,0.272977,-0.179368,-0.222327,0.0335109,0.464837,-0.0668232,-0.324349
0.529554,-0.27627,-0.288446,0.31253,0.100372,0.24098,-0.169174,-0.461009,0.0622616,0.117447,0.148618,-0.0116565,0.35083,0.505179,-0.00399204,0.494343,-0.539339,0.344805,-0.0710813,-0.118596,-0.839806,0.163123,-0.121661,-0.335601,-0.478942,0.169987,0.00997319,-0.219092,0.00565116,0.52482,-0.33713,0.189953,-0.366044,0.629746,0.0985132,-0.288768,0.126535,0.273063,-0.661717,-0.581231
-0.269133,0.089537,0.0665007,-0.157107,0.0416434,0.227332,-0.33195,-0.0164882,-0.037654,0.285703,0.410734,-0.0363897,0.318744,-0.123144,-0.0712888,0.470301,0.290503,-0.106741,0.000819552,0.145314,-0.218495,-0.0313406,-0.302414,0.0217455,-0.334646,0.21609,0.0975154,-0.20132,0.156257,0.491034,-0.0817658,0.166739,0.436972,0.240512,-0.0452897,0.0422471,0.0836108,0.226372,-0.416446,-0.541539
0.0807892,-0.032802,0.212094,0.0918645,-0.598207,0.282833,-0.143793,-0.17846,0.33003,0.435601,0.144218,-0.630925,0.390171,0.790684,0.0197712,0.957918,0.0028064,0.512898,-0.0686002,-0.118729,-0.73806,0.248945,0.0425653,-0.233701,-0.345692,-0.361437,-0.107233,-0.123549,-0.134827,-0.0738307,-0.310801,0.189211,0.0567336,0.356967,-0.204548,-0.333637,0.343004,-0.15111,-0.329308,-0.502385
0.177675,-0.166769,0.0119201,-0.138627,-0.307828,0.0779578,-0.121199,-0.25315,0.146926,-0.34379,0.594851,-0.152425,0.267906,0.547969,-0.238446,0.30242,0.237631,0.734916,-0.196371,0.0350072,-0.513078,-0.0438041,-0.240753,-0.521654,-0.536489,0.0760788,0.291208,-0.18086,-0.263383,0.224935,-0.0448542,-0.353278,-0.0730407,0.671781,-0.214773,0.235514,0.112266,-0.13286,-0.42189,-0.201272
-0.193537,0.0898608,-0.159571,0.166421,-0.450698,0.084241,0.011598,0.0356728,-0.00164271,0.00252932,0.679707,0.163777,0.107773,0.281066,-0.229829,0.146554,-0.103281,0.375099,-0.113125,0.105122,-0.241921,0.343411,-0.27873,-0.105898,-0.164002,0.139724,0.195414,0.0613843,-0.0164275,0.12081,0.0973035,-0.202768,0.0659127,0.472491,-0.191951,0.0605468,-0.0114197,0.033264,-0.475823,-0.162544
-0.0767927,0.0773104,0.181558,0.297349,-0.330613,0.0690096,0.176307,-0.389408,0.146559,0.0351162,0.308265,0.128492,0.238571,0.237678,-0.385333,-0.0871176,0.163407,0.377185,-0.0646357,0.143591,-0.0135741,0.345498,-0.249809,-0.0431443,-0.219567,0.290109,0.155156,-0.0331366,0.293648,-0.396868,0.144084,-0.0243283,0.0394133,0.338589,-0.0791763,0.300385,0.139072,-0.135112,-0.0462716,-0.334555
-0.352289,0.224261,0.193289,-0.181651,-0.30092,0.104337,-0.0211415,-0.0979892,0.217294,0.014737,0.477671,-0.28293,0.165467,-0.0961287,-0.0212043,-0.0168759,0.337952,-0.731858,-0.0676455,-0.0760346,0.341256,0.0174182,-0.0659461,-0.0306091,-0.040264,-0.118344,0.090802,0.019184,0.0836015,-0.227287,0.0456181,-0.109929,0.13519,-0.0783718,-0.12528,-0.029169,-0.026779,0.155319,0.0228239,-0.332113
-1.01213,0.545298,0.466388,-0.444926,-0.0208845,0.280203,-0.0771073,0.246769,-0.153344,-0.128189,0.0202411,-0.516,-0.0474103,-0.324069,-0.137808,-0.195675,0.223028,-0.638188,0.11282,-0.201712,0.847717,-0.0953317,-0.916681,0.15726,-0.158607,-0.147482,-0.123602,-0.201642,0.427103,-0.750844,0.141883,-0.249612,0.283461,-0.0711354,0.00790965,0.241023,0.217483,-0.00879753,0.0229869,-0.296444
-0.677779,0.436529,0.323566,0.16263,0.0280102,0.345529,-0.0947591,0.264107,-0.287109,0.238244,-0.276105,-0.235521,0.299851,-0.0860676,-0.31582,-0.147045,-0.0849148,-0.412745,0.110815,0.233258,0.224364,0.435317,-0.83071,0.220426,0.160015,0.594177,-0.163203,-0.0515241,0.711289,-0.495464,0.327084,-0.36669,0.376698,0.321286,0.179226,0.113961,0.200165,-0.121125,0.0986653,0.107852
-0.79748,0.494756,0.197338,0.109626,0.0651706,0.215259,-0.106887,0.370509,-0.292061,-0.315197,-0.0106064,0.0828264,-0.0685924,-0.195398,-0.51689,-0.576684,0.0642756,-0.302542,0.0959796,0.171266,0.318883,0.348045,-0.814638,0.267132,0.199365,0.424379,0.140583,0.0131426,0.654687,-0.817076,0.383388,-0.477098,0.220745,0.091057,0.183982,0.169169,0.155135,-0.137967,0.13339,0.0603049
-1.17187,0.390698,0.144132,0.00404198,-0.543643,0.198372,-0.0625377,0.523072,-0.666834,0.0838271,-0.557649,0.373829,0.476531,0.102739,-0.171175,-0.0456393,0.100484,-0.1419,0.102775,0.559215,0.355094,0.522583,-0.600793,0.326289,-0.0131615,0.506107,-0.217493,0.0766469,0.665949,-0.55357,0.104241,-0.620743,0.611239,0.13797,-0.0841068,0.238625,0.0618423,-0.159771,0.470432,0.127273
-1.00974,0.241804,0.0890751,-0.114729,-0.138419,0.216754,-0.188343,0.528457,-0.44084,0.369951,-0.165363,0.159423,0.282364,0.313695,-0.127145,0.145313,0.238848,-0.179303,0.198513,0.217655,0.321692,-0.126974,-0.480343,0.077104,-0.17175,-0.0278856,0.0601665,0.176564,0.567234,-0.0803889,-0.0736798,-0.33625,0.597975,0.386238,-0.202832,-0.449885,0.0491151,-0.126953,0.173857,-0.163897
-1.0513,0.166011,-0.146177,-0.414198,-0.221632,0.263852,-0.111467,0.730167,-0.360969,-0.0780502,-0.407208,0.327884,-0.133394,-0.00766135,-0.0071182,0.104131,0.464521,-0.151749,0.223944,0.0258319,0.212174,-0.20977,-0.507732,-0.0975381,-0.249702,-0.0938343,0.49574,0.262813,0.427575,-0.582896,-0.355093,-0.618911,0.478278,0.233212,0.12263,-0.215154,0.0576094,-0.334086,-0.0856804,-0.169685
-1.15086,0.281336,-0.119611,-0.481225,-0.182386,0.085283,-0.208155,0.91248,-0.241112,0.264377,-0.0648876,-0.0533145,-0.414091,-0.0680917,0.485946,0.318829,0.198424,-0.45257,0.111367,-0.205003,0.793157,-0.413966,-0.281406,0.190905,0.107536,-0.455717,0.201467,0.257916,0.385127,-0.36292,-0.121772,-0.364201,0.468266,0.223517,0.0726511,-0.6995,-0.0701928,-0.166951,0.12562,-0.487771
-0.920685,0.0211333,-0.0834593,-0.34853,-0.209518,0.169227,0.198343,0.561693,-0.275659,-0.518383,-0.215818,0.136677,-0.245419,0.3354,0.315241,0.00897059,-0.0392747,0.16236,-0.000409788,-0.0340544,0.732815,-0.301155,-0.213073,0.181644,0.132785,-0.715507,-0.138483,0.0558968,0.418423,-0.662351,-0.0421169,-0.702371,0.0859726,0.483275,0.150899,-0.508633,0.275043,-0.288068,0.101169,-0.349107
0.0939592,-0.0930561,-0.274626,0.0347,0.770169,-0.0413976,-0.244511,-0.236203,0.264239,-0.578363,-0.222305,0.149156,0.0154186,-0.0747444,-0.224154,-0.13885,-0.196437,0.370254,-0.104203,-0.417708,0.0230754,0.479757,-0.124743,0.154245,-0.0126587,-0.134864,0.250103,-0.190073,0.0536176,-0.142439,0.127496,-0.438438,-0.388041,-0.207244,0.561914,-0.04677,-0.0791502,-0.0309691,-0.465183,-0.0460649
0.380185,-0.283489,-0.0612121,0.0211743,0.985109,0.0748469,-0.316096,-0.614131,0.487165,-0.250049,-0.314163,0.117644,0.143122,0.184526,-0.450529,0.187548,0.0413419,0.740663,-0.287057,-0.462352,-0.969724,0.168534,-0.288071,-0.118344,-0.582866,-0.315113,0.654836,-0.133058,0.0681578,0.22497,0.153388,-0.176368,-0.275613,-0.16995,0.808626,-0.118138,0.0574487,-0.530134,-0.927528,-0.414096
0.688939,-0.310949,-0.00272454,0.0989149,0.104196,0.252274,0.115984,-0.547361,0.119386,-0.389201,-0.533193,0.0256774,0.153935,0.354074,-0.0808184,0.196616,-0.0323087,0.896433,-0.110985,-0.0829531,-1.05855,0.618261,0.0490474,-0.275362,-0.421739,0.279601,0.0434077,0.120102,-0.399339,0.116103,-0.23058,-0.291994,-0.171172,0.32799,0.116522,0.171685,0.103049,0.265394,-0.708586,-0.177546
0.0699091,-0.252129,0.270464,0.00962475,-0.195475,0.305112,0.109957,-0.00407092,0.409619,-0.111991,-0.493406,-0.506368,0.185941,0.140584,-0.0512982,0.262531,-0.313381,0.208227,-0.157735,0.0468838,-0.60532,0.615035,0.15002,-0.0832935,-0.0220207,-0.234874,0.00512636,0.148104,-0.171627,-0.652127,0.0199251,-0.267581,0.0577046,-0.0576501,0.000888943,0.197574,0.126574,-0.0751875,-0.388391,0.00191778
0.262675,0.00861106,-0.254501,-0.00241755,0.129131,0.0307229,0.0261883,-0.306091,0.0733373,0.0268372,0.752191,0.136602,0.00879081,-0.0875329,-0.21604,0.0156675,-0.387678,-0.00955059,0.0504712,-0.0564959,-0.0400307,-0.267149,-0.422466,-0.296542,-0.168583,0.142153,0.0282619,-0.237946,-0.256212,-0.0508267,-0.29088,-0.241515,0.0801013,0.195773,-0.149806,0.132693,-0.0790337,0.10904,-0.285412,-0.149336
-0.306963,0.0908362,-0.0912136,-0.12203,-0.274147,0.13744,0.252695,-0.149045,0.0224388,-0.22151,0.440003,0.188644,-0.134619,0.0708695,-0.022941,-0.16208,0.029166,0.0996479,-0.129002,0.117881,0.183146,0.184492,-0.0737883,-0.373476,-0.0763455,0.0769571,0.234364,0.152819,-0.240676,0.0100904,-0.0532201,-0.809965,0.0301539,0.0862291,-0.048914,0.052882,0.0493257,-0.0776656,-0.594536,-0.0735503
-0.243622,-0.0634404,0.287172,-0.0441634,0.196104,-0.117713,0.193289,0.0376366,0.0525011,-0.487586,0.892063,-0.300852,0.250092,0.495463,0.119141,-0.255616,0.23538,0.446002,-0.190906,0.210959,0.426127,0.290573,0.0190532,-0.213314,-0.353621,0.168297,0.0517504,-0.341083,0.161702,-0.199313,0.319681,-0.50028,-0.369638,0.407359,0.0157855,0.0480429,0.25315,-0.100225,-0.575354,0.0389597
-0.127905,-0.0279283,0.0568258,-0.21495,0.630206,-0.279076,0.124146,0.25439,-0.405085,-0.344515,1.04866,-0.313504,0.0436581,0.267547,0.159374,-0.439307,0.322159,0.19743,-0.0633208,0.147945,0.650901,-0.204712,-0.139877,0.000493377,-0.475293,-0.05392,0.25018,-0.401608,0.314369,-0.128259,0.327243,0.279086,-0.132796,0.0259354,0.211428,-0.201022,0.156115,0.235431,-0.351874,0.0993472
-0.0911438,-0.0106045,0.407298,-0.458663,0.399802,-0.506551,-0.0127191,0.363984,-0.218474,-0.0731451,1.07361,-0.361725,0.264501,-0.135865,0.0333159,-0.0501304,0.749333,-0.181562,-0.0247555,0.157526,0.639445,0.0280344,-0.244573,0.0519359,-0.473452,-0.308091,0.150837,-0.241784,0.229211,-0.242247,0.467193,0.132145,-0.130595,-0.0698689,-0.0986091,0.259022,0.00167,-0.00406707,-0.179036,0.136464
-0.228065,0.242447,0.821082,-0.382404,0.399161,-0.0207934,0.152803,0.267511,-0.338355,-0.248167,-0.0771596,-0.452154,0.184281,0.0792632,-0.494844,-0.0663634,0.641516,-0.0156874,0.0386402,0.448593,0.0959573,0.0469119,-0.722631,-0.0206082,-0.626384,0.0183343,0.017862,-0.288069,0.486986,-0.624889,0.489091,-0.189034,0.0153703,0.126588,-0.0965455,0.442907,0.40077,0.172069,0.127149,-0.0480514
-0.433155,0.45602,0.487258,-0.102124,0.163786,-0.160279,0.0819085,0.31911,-0.442095,-0.190055,0.649615,0.326309,0.1101,0.138205,-0.0859514,-0.224178,0.115947,-0.116884,0.144178,0.064626,0.822725,-0.429091,-0.745286,0.351077,-0.13098,0.311319,-0.188406,-0.0853602,1.05716,-1.2266,0.601281,0.0148294,0.446284,0.0713257,-0.0166425,-0.037285,0.421525,0.398965,0.522017,0.0351077
-0.730277,-0.0288045,0.23784,-0.435621,0.547727,-0.187982,-0.218413,0.514618,-0.257116,-0.014068,0.57213,-0.0154006,-0.461223,0.414388,0.16467,-0.228791,0.317438,0.497415,0.14503,-0.245965,1.22673,-0.815007,-0.70665,0.035867,-0.195144,-0.147003,-0.10124,-0.1119,0.952683,-0.976473,0.4124,0.0611903,0.382522,0.469521,0.172852,-0.59449,0.482166,0.188327,-0.203944,-0.0345287
-0.729898,0.171766,-0.0183378,-0.503567,-0.401492,0.207547,-0.180454,0.509039,-0.615233,-0.0582246,-0.108681,0.0378078,-0.152956,0.224118,0.108324,-0.00344001,0.382096,0.0441779,0.286502,0.326609,0.157343,-0.358622,-0.582323,-0.0592368,-0.427501,0.120763,-0.132316,-0.0794998,0.684424,-0.57999,-0.221316,-0.174992,0.433377,0.561623,-0.394036,-0.212459,0.196786,0.165415,-0.118204,-0.47762
-0.968027,0.359055,-0.290573,-0.133539,-0.118702,0.0428502,-0.493623,0.49984,-0.0845821,-0.0759851,-0.300675,-0.00584421,0.144788,0.527819,0.0258927,0.121964,0.106149,0.0992035,0.0470915,-0.096297,0.171263,0.26644,-0.187393,0.0501317,-0.0544092,-0.319699,0.167683,0.0253549,0.606229,-0.717447,-0.077363,-0.94728,0.470764,0.539259,0.108163,-0.675192,0.207848,-0.378919,-0.156466,-0.411074
-1.36933,0.197176,-0.140496,-0.569561,-0.604002,0.124978,-0.311249,0.677851,-0.15938,0.386954,-0.171952,-0.0565503,-0.453374,0.255157,0.0542109,0.179873,0.116131,-0.372141,0.0859738,-0.218435,0.611841,-0.449965,-0.593477,0.319475,-0.251132,-0.987859,0.225514,0.139304,0.666469,-0.98056,-0.454057,-0.876649,0.915722,-0.0125647,-0.162223,-0.810609,0.412635,-0.703764,0.220129,-0.621032
-1.07453,0.0134297,-0.209287,-0.640248,-0.371012,0.28463,-0.232446,0.160982,-0.358165,0.14329,-0.201748,0.215946,-0.119109,0.323347,0.204636,0.645755,0.463785,0.243529,-0.0287414,-0.361948,0.00394246,-0.00189813,-0.185626,-0.243559,-0.31511,-0.190893,0.0524586,0.103101,0.296638,0.0351218,-0.270877,-0.859516,0.506117,0.503401,-0.00359409,-0.557081,0.213229,-0.609802,-0.271556,-0.63918
0.117087,-0.25634,0.268724,0.437524,0.309632,-0.027584,-0.0917161,-0.414797,0.405032,-0.333061,-0.502414,-0.0125938,0.234631,0.777513,-0.410942,0.0195598,-0.129527,0.860172,-0.132219,-0.317298,-0.462367,0.575459,-0.416094,0.00168526,-0.398088,-0.356986,0.125045,-0.0136762,0.238941,-0.198671,0.0403679,-0.251638,-0.289019,0.0234448,0.521146,0.047552,0.342525,-0.505374,-0.804915,-0.0518335
0.55641,-0.31837,0.198388,0.224434,0.896073,0.0500661,0.269454,-0.51846,0.367136,-0.437936,-0.383831,-0.15977,0.170976,0.721664,-0.0811843,-0.00991038,0.059093,1.06688,-0.146728,-0.237661,-0.661247,0.23184,0.0324511,-0.0589222,-0.40469,-0.167297,0.284637,0.138728,-0.0387031,0.109886,0.0850956,-0.156862,-0.507845,0.0410981,0.762006,0.253425,0.12586,-0.0161304,-0.694268,0.253695
-0.597817,-0.468216,0.203868,-0.31899,0.504578,0.244026,0.30295,0.370999,0.169054,-0.353711,-0.506394,0.0246097,0.178974,0.178404,0.312697,0.19376,0.325026,0.528992,0.0928506,-0.211658,-0.314838,0.284465,0.138812,-0.146711,-0.356881,0.216362,0.207108,0.252579,-0.629601,-0.116218,0.458438,-0.815435,-0.129136,0.371524,0.310687,0.097744,0.267802,0.3072,-0.667267,0.184456
0.550612,-0.518902,-0.280715,0.0325454,0.614706,0.0331648,0.163424,-0.43885,0.425391,0.24125,-0.691638,-0.0165661,0.0377201,0.0697266,0.130908,-0.0440507,-0.243367,0.338656,0.210972,-0.287957,-0.814272,0.390936,0.0138304,0.0293873,-0.150231,-0.249606,0.278609,0.0938731,-0.152057,0.375769,0.00866417,-0.192078,-0.0366857,0.276545,0.238601,0.00927346,0.145689,0.0327297,-0.587704,0.120151
-0.0606158,-0.458544,0.17113,-0.200301,0.726983,-0.148725,0.428824,-0.116528,0.309462,0.0496272,0.364619,-0.159461,0.173554,0.223265,0.158058,-0.123286,0.127764,0.175806,-0.105006,0.103742,0.233828,-0.265106,-0.0160967,-0.042709,-0.294431,-0.278703,0.371328,-0.0979485,-0.282347,-0.0496512,0.165562,-0.170813,0.0702989,-0.207146,0.340817,0.255012,0.383599,-0.0876452,-0.107891,0.315759
-0.00871922,-0.284243,0.243565,-0.0810395,0.469228,-0.00739813,0.54264,0.0524131,0.128406,-0.0249057,0.0286573,-0.174014,-0.138294,0.000920465,0.184984,0.0236772,0.208375,0.298478,-0.0560859,0.0124449,0.109746,-0.184219,-0.0172606,-0.3021,-0.228736,-0.125686,0.122075,0.104452,-0.50572,0.0235839,0.00747325,-0.26252,-0.050571,-0.147911,0.277692,0.140195,0.23035,0.0911338,-0.431784,-0.0786434
-0.0437268,-0.0653875,-0.142424,-0.4375,0.812154,-0.293432,0.00118999,0.352489,-0.205031,0.0037056,0.514545,0.0313409,-0.225572,-0.394626,0.248882,-0.278401,0.0892896,-0.427191,0.0977534,-0.452815,0.557106,-0.186903,0.399236,0.19564,0.05969,-0.161573,0.352651,-0.00678703,-0.123263,0.4723,0.481994,0.0830054,0.0367038,-0.590507,0.713487,-0.184831,-0.613533,0.0221155,-0.215311,0.138083
-0.183103,0.0544363,0.478056,-0.134046,0.304296,-0.13997,-0.0362656,0.453701,-0.494967,0.0826475,0.308325,-0.126116,0.0455723,-0.293472,-0.319205,-0.207854,0.180104,-0.414161,0.0025,0.14997,0.221548,-0.106762,-0.105961,-0.0358801,-0.143958,0.0517387,0.0450174,0.0352948,-0.137687,0.164038,0.0907577,-0.134735,-0.062904,-0.188969,0.206907,0.277967,-0.0211438,-0.0269381,0.0521959,0.0605776
0.0963734,0.0584784,0.120296,-0.354051,-0.0102286,-0.0465252,-0.0236186,0.557185,-0.583185,-0.409636,0.738842,0.097032,-0.268741,-0.428505,0.0128333,-0.358717,0.583702,-0.322041,0.121254,0.423528,0.159689,-0.405888,0.140536,-0.306983,-0.178705,0.345253,0.282362,0.231695,-0.313314,-0.00434039,-0.0568099,-0.114011,-0.0678221,0.0843777,0.311447,0.126866,-0.250194,0.422833,0.1755,0.129175
-0.39576,0.00343539,0.240045,-0.425058,-0.451798,-0.0506568,0.00527581,0.247616,-0.243757,-0.189777,0.169967,-0.215563,0.175965,0.151569,0.125339,0.563918,0.233065,0.0246097,-0.0856164,0.163192,-0.355082,-0.351689,0.302256,-0.360742,-0.301587,0.00785481,-0.394153,0.0664185,0.0622267,0.196368,0.172589,-0.315495,-0.0152012,0.104061,-0.16225,-0.010033,0.0580938,0.0644706,0.0662741,-0.0703229
-0.639307,0.0341374,0.18115,-0.377053,-0.209109,-0.184781,0.140054,0.213373,-0.467061,-0.175027,0.0669512,0.385361,0.101577,-0.136456,0.166595,0.228358,0.20732,0.0640295,-0.0272943,-0.0744353,0.263704,-0.36192,0.352818,0.0569344,-0.25149,0.252478,-0.304406,0.0850149,-0.173131,-0.150319,0.129157,-0.139548,-0.0335046,-0.202558,0.0771225,-0.0370296,-0.0247104,-0.0712329,0.2245,0.0601078
-0.251983,0.129831,0.350833,-0.165004,0.582536,-0.0876955,0.422201,0.334828,-0.000149972,-0.20023,-0.140452,-0.371896,-0.43804,0.091533,0.142583,0.0195953,0.361001,0.0991698,0.205539,0.133438,0.753942,-0.330652,-0.0470817,0.00446209,-0.475406,0.297951,0.0740092,0.360984,-0.0447626,-0.487858,0.0783829,-0.0383514,0.187067,-0.279079,0.224282,0.189298,0.273004,0.386816,-0.113723,0.0745883
0.151444,0.093364,0.341314,-0.357308,0.176566,-0.159563,0.64894,0.472777,-0.255171,-0.388111,0.0472251,-0.209766,-0.0258509,0.210885,0.459465,0.0181438,0.267958,0.584785,0.214813,0.13396,0.513671,-0.402433,0.239932,-0.00860104,-0.563033,0.80256,0.0417225,0.306442,-0.260989,-0.445838,-0.0712847,0.0513077,0.00357676,0.0684496,0.167212,0.444529,0.136945,0.665873,0.13573,0.0351174
-0.0353172,0.159621,-0.0718961,0.469336,-0.26045,0.0254098,0.206321,0.0248342,-0.109453,0.102427,-0.472349,0.201118,0.636132,0.631111,0.00462749,0.192347,-0.463778,0.352891,0.0375297,0.0384307,-0.175244,0.698613,-0.172442,0.256311,0.173929,0.0824982,-0.314226,0.171309,0.213969,-0.296907,-0.0224557,-0.390427,-0.0905876,0.330264,0.0747173,-0.269549,0.074863,-0.10184,-0.0649633,-0.109358
-0.72608,-0.00421102,0.0739004,-0.315969,-0.406454,0.318695,0.186896,0.161128,0.00879362,0.0999192,-0.771726,0.380344,0.0161586,0.389932,-0.226316,0.236651,0.179882,0.199693,0.0686084,-0.373454,0.13002,0.314343,-0.321388,0.0594567,-0.336384,-0.340148,0.261417,0.29541,-0.0536145,-0.216484,-0.547277,-0.953794,0.371306,0.0217624,-0.0304678,-0.293605,0.470535,-0.571358,-0.00650831,-0.0605402
-0.70276,0.0262461,-0.238566,-0.0662162,-0.673094,0.0709122,-0.0901571,0.12985,-0.0917041,0.5065,-0.714375,0.811604,0.393625,0.413556,0.0590626,0.292517,-0.510244,0.15847,-0.128415,0.0710996,-0.393921,0.913195,0.243858,0.213047,0.268958,-0.246923,-0.253785,0.228993,0.144693,0.104733,-0.330092,-0.571412,0.474501,-0.041737,-0.300846,-0.135395,0.0942,-0.711953,-0.0494049,-0.155504
-0.104624,0.226235,0.333395,0.255218,0.430126,0.26448,-0.0801709,-0.0528713,0.434173,-0.308852,-0.637155,-0.0540208,0.0388917,0.551107,-0.217646,0.36718,0.16927,0.859496,-0.0144164,-0.0638888,-0.456169,0.404838,-0.379002,-0.160752,-0.3378,-0.429588,0.24515,0.0291719,0.295214,0.0106347,0.0571103,-0.403861,-0.32965,0.0875352,0.526948,0.1016,0.363944,-0.338863,-0.592501,0.0389838
0.0968069,0.0761677,0.413057,0.299331,0.997112,0.125552,-0.483633,-0.158613,0.502853,-0.42824,-0.523943,-0.2663,0.351105,0.449104,-0.185767,0.135294,0.101271,0.430992,-0.108312,0.110558,-0.306454,0.504347,-0.350408,-0.098354,-0.0599322,-0.332923,0.193465,-0.48315,0.586063,0.0817207,0.530609,-0.190885,-0.489383,0.265257,0.748601,0.306345,0.562294,-0.496318,-0.414661,0.2136
0.113119,-0.335314,0.0869526,-0.292203,0.408804,0.0892477,0.0949232,0.171563,0.423212,0.280146,-0.511144,-0.644447,-0.00649693,0.583922,0.333839,0.327002,0.0487759,0.0382235,0.101789,-0.364321,-0.462837,-0.154441,0.171737,0.10648,-0.0549727,-0.858665,0.269668,0.172925,-0.0947529,-0.521478,-0.149281,0.11028,0.0151289,-0.0408267,0.13289,-0.254019,0.436182,-0.00156691,-0.0532082,-0.167898
0.329897,-0.55845,0.455561,-0.00220927,0.680392,0.134601,0.287702,-0.0201577,0.40188,0.00111937,-0.272404,-0.416807,0.279099,0.298947,0.251146,0.0790357,0.317768,0.0906704,0.148009,0.431531,-0.0180017,0.0259001,0.347466,0.11026,-0.206386,0.217627,0.176013,-0.345821,-0.0490098,0.260269,0.156093,0.329664,-0.404316,0.174257,0.222566,0.54616,0.334641,0.131322,0.207109,0.39589
0.198636,-0.190009,0.213545,-0.231931,0.536792,-0.130027,-0.267484,-0.220506,0.00141338,0.124146,-0.0582027,-0.175838,0.0208935,-0.466521,-0.0826711,-0.181216,0.699295,-0.523407,-0.0438242,0.270043,0.0154634,0.127969,-0.00262282,0.0672773,-0.351329,0.124644,0.128474,-0.490841,-0.126168,0.61315,0.0373025,-0.138057,0.0237162,-0.122662,0.116252,0.568991,-0.132936,-0.112712,0.0705866,0.322139
-0.299781,-0.385556,0.0389012,-0.389052,0.554289,0.185944,0.280219,-0.163575,0.184701,0.137633,0.233315,-0.488958,-0.473617,0.05488,0.192587,0.198516,0.715135,0.112133,0.0649948,-0.19392,0.128807,-0.414953,0.280454,-0.302461,-0.598672,-0.0166494,0.132753,0.0647205,-0.216682,0.296387,-0.30754,-0.17913,0.161956,-0.0591857,0.216421,0.083697,0.185088,-0.0678719,-0.379449,-0.369897
-0.0127585,-0.451908,0.0499032,-0.363124,0.414944,-0.172752,0.384754,0.180759,-0.308128,0.0671367,0.0985223,-0.0025843,-0.226806,-0.614949,0.206443,-0.129853,0.744397,-0.135527,0.0386511,0.0639099,0.384211,-0.416604,0.413944,-0.132482,-0.51127,0.0370019,0.171983,0.137823,-0.24458,-0.286854,-0.0562407,-0.0624153,-0.128474,-0.425161,0.0724796,0.351347,-0.134957,0.233814,0.0454281,-0.0326626
0.0280298,-0.22944,0.121669,-0.0541758,0.201482,-0.0771862,0.24462,0.159577,-0.13351,0.368687,0.0480883,-0.0067449,-0.0781855,-0.172335,0.132936,0.0404514,0.579652,-0.070125,0.0202008,-0.184824,0.184751,-0.173319,0.487639,0.0188918,-0.141362,0.215176,-0.101983,0.316077,-0.150553,-0.347171,0.109022,0.232925,0.0235477,-0.278075,0.0025789,0.105197,0.0759329,0.0806287,0.0318831,-0.106681
-0.226641,-0.220262,0.280493,-0.186624,-0.208415,-0.12138,0.359369,0.145673,-0.0527428,0.312588,0.211023,0.158371,0.192134,-0.37118,0.180379,0.194049,0.60291,-0.467427,0.0417804,0.127539,0.409603,-0.223392,0.48199,0.0956629,-0.270115,-0.122363,-0.0799337,0.272672,-0.0865619,-0.119297,0.0667106,-0.181861,0.264915,-0.460771,-0.0504605,0.175473,0.183463,-0.156132,0.408063,-0.00288995
-0.637066,0.148765,0.29477,-0.155119,-0.0386322,-0.108273,-0.0310546,0.0523793,-0.368567,0.114841,0.0073063,0.196803,0.204292,0.141608,0.101558,0.202443,0.306165,-0.199007,-0.0623741,-0.120588,0.0791064,-0.0839363,0.158472,-0.118478,-0.121354,0.194757,-0.130007,-0.171319,0.339293,0.121112,-0.0298343,0.00140214,0.0494074,0.0321165,0.05026,-0.343406,0.359839,-0.319675,-0.0448639,-0.223056
-0.112564,0.0731352,0.208021,-0.451258,0.0703591,-0.0621695,0.249007,0.138534,-0.188474,-0.292077,0.0682578,0.338319,0.0933192,-0.187823,0.268123,-0.158185,0.398194,-0.285057,-0.00225991,0.160229,-0.138555,-0.103319,0.843453,-0.101787,-0.0143889,0.460294,0.0887948,0.203022,-0.148513,0.233936,0.0709293,0.0531817,-0.338326,-0.126494,0.0124926,0.121145,0.122233,-0.0177113,-0.143027,-0.0214095
-0.511629,-0.104049,0.472779,-0.58799,0.0738382,0.0669214,0.329263,0.284594,-0.110925,-0.00384715,-0.263435,-0.40379,-0.295396,-0.20334,0.309371,0.577206,0.275398,-0.0450334,-0.0283231,0.28424,-0.412469,-0.391758,0.440692,-0.26057,-0.47392,0.155851,0.128464,0.18667,-0.278524,-0.212891,-0.132333,-0.120701,-0.121458,-0.237507,-0.304666,-0.0769141,0.187849,0.12202,0.0754797,-0.0281321
-0.35748,-0.350508,0.682754,-0.32412,-0.0466785,-0.014988,0.49601,0.313682,0.0915976,-0.434596,-0.211717,-0.360262,0.058777,-0.0917134,0.387844,-0.00708582,0.338048,-0.20407,-0.0149713,0.0335898,0.0618488,-0.0686941,0.318657,0.12041,-0.230245,0.315132,-0.0787428,0.0672382,0.0794694,-0.246653,0.286697,-0.0756473,-0.225044,-0.0662028,-0.0831871,0.132847,0.0773348,0.115958,-0.0408459,0.337416
0.445844,-0.214914,0.307578,0.000372884,0.00146722,-0.455997,0.201862,-0.386657,-0.509957,-0.295867,0.640819,0.100653,-0.0418635,0.447967,0.0498648,-0.140591,-0.213542,0.860931,0.0123004,0.164268,0.347575,-0.0792012,-0.0184184,-0.118329,-0.56026,0.0838244,-0.463664,-0.0624087,0.257457,0.262531,-0.31179,0.366022,-0.132283,0.626209,-0.275638,0.0338723,0.370046,0.167201,-0.238011,-0.12763
-0.332823,0.121847,0.0356448,0.45766,-0.0620602,0.0428611,-0.370739,-0.383609,0.125746,-0.0628917,-0.333396,0.682601,0.545875,0.300903,-0.297229,-0.320353,-0.326569,0.138172,-0.292577,0.00898736,-0.114364,0.815225,-0.298922,0.360211,0.178893,-0.306009,-0.0193682,-0.294682,0.573449,-0.310244,0.300017,-0.241579,-0.066737,0.0805186,0.194783,0.24813,0.180852,-0.6114,-0.0686027,0.172015
-0.691384,0.312257,0.0500667,0.227629,-0.102309,0.13407,-0.205261,0.0855943,0.303526,0.336798,-0.493582,0.356738,0.454767,0.386945,0.017282,0.13384,0.0183028,0.200523,-0.112295,0.170111,-0.199061,1.02539,-0.170459,0.212955,0.00134835,-0.336721,0.129841,-0.186044,0.511349,0.375943,0.130194,-0.472918,0.222404,0.241205,0.0437473,0.0652884,0.439845,-0.726381,-0.08379,0.205819
0.24612,0.199292,-0.0998395,0.469228,0.064815,0.167937,-0.372794,-0.341832,0.349681,0.224625,-0.412494,0.0314498,0.209123,0.171169,-0.263992,0.371114,-0.168555,0.0210313,0.0624237,0.29331,-0.904887,0.572325,0.0306584,-0.162595,-0.102786,-0.0415227,0.0141898,-0.179427,0.176193,0.410038,0.152239,0.255207,-0.487182,0.0943153,0.352864,0.14006,0.183942,-0.224903,-0.2516,0.21647
0.29727,0.151138,-0.170235,0.0372286,0.31575,0.0474042,-0.383868,-0.313658,0.379359,-0.296802,-0.358577,0.0866693,0.0435539,-0.0714931,-0.243255,0.135518,-0.103326,-0.0434347,0.012039,-0.326855,-0.464605,0.513755,-0.0747055,-0.330935,0.041131,-0.0634454,0.302065,0.0510186,-0.164109,0.0838767,-0.025236,-0.286319,-0.704484,-0.236209,0.342232,0.0761028,-0.0477633,-0.219678,-0.196765,0.396119
-0.200837,-0.186374,0.0609596,-0.0535143,0.0782382,0.0749507,-0.452479,-0.225256,0.209165,0.0265005,-0.838469,-0.20133,0.359745,-0.0892706,-0.0636958,0.276403,0.347419,-0.20614,-0.0333909,0.424793,-0.486855,0.470614,-0.363227,-0.168085,-0.169045,-0.114284,-0.000353305,-0.49031,0.37301,0.0785854,0.315937,0.122367,-0.305418,0.209346,-0.0497249,0.074869,0.043546,-0.319522,-0.00663974,0.000683164
0.235959,-0.363361,0.252252,-0.258319,-0.0354971,0.0842794,0.0717352,-0.197951,0.192581,0.246734,-0.728906,-0.261524,0.127013,-0.0985329,0.129857,0.275816,0.458263,0.061515,0.0999357,-0.0924169,-0.443535,0.409863,0.311346,-0.274656,-0.133546,-0.10327,0.251708,0.220605,-0.302514,0.474185,-0.166016,0.354614,-0.16384,0.178449,-0.264721,-0.253314,-0.285406,0.0429842,0.0765614,-0.234773
0.0882355,-0.55536,0.114808,-0.149461,0.507945,0.0911273,0.198158,0.0282919,-0.156581,-0.298668,0.0178442,0.110179,-0.0416686,-0.233441,-0.0903786,-0.471735,0.347012,0.292204,0.17578,0.0824874,0.0722524,-0.000722431,-0.234685,-0.166823,-0.236911,0.49536,0.189608,-0.208385,0.197097,0.305393,-0.295257,0.334746,-0.376728,0.0123724,0.0517383,0.156076,-0.0485876,-0.0530141,-0.00127678,0.222783
0.0372244,-0.424447,0.34536,-0.281391,0.239109,-0.103071,0.232618,0.218691,0.0894621,0.260547,-0.271244,-0.311408,0.260565,-0.323279,0.0248821,-0.0659475,0.488409,-0.072117,0.164998,0.00863137,-0.0874253,0.0971312,-0.0761848,-0.114307,0.054113,0.263076,0.325411,0.159789,-0.168688,0.0815954,-0.0396774,0.0601839,-0.372746,-0.246322,-0.227677,-0.061686,-0.0665426,0.0316165,-0.322386,0.00695274
-0.109437,-0.159199,0.336549,-0.541712,0.312404,0.018779,0.647933,0.244602,0.114711,0.44566,0.347304,-0.285462,-0.19322,0.12462,0.481794,-0.0329586,1.18939,0.0399298,0.303202,-0.118706,0.704192,-0.554504,0.521176,-0.00236355,-0.21395,-0.18776,0.690576,0.59156,-0.495635,0.187398,-0.076364,0.26218,0.025479,-0.293356,-0.113945,-0.0417678,0.0668606,0.424971,0.126613,-0.231936
0.0433365,-0.00516713,0.0165811,0.00876319,0.0683562,-0.0650662,0.108618,-0.0613782,-0.14081,-0.130982,0.482439,0.531691,0.118816,-0.0298808,-0.0121964,-0.299536,0.198602,0.16003,0.169478,-0.104552,0.20691,-0.143088,0.194687,0.0264596,0.0481956,0.219773,0.153118,0.212864,-0.354357,-0.0230832,0.136826,0.170551,-0.0236277,-0.209981,-0.0262719,0.238366,-0.317606,-0.0390513,-0.0294007,0.141721
-0.129505,-0.26967,0.312746,-0.372665,0.112273,-0.161756,-0.178368,0.428684,-0.279532,-0.0646783,0.565903,0.436832,0.146196,-0.218352,-0.199701,0.0151756,0.851259,-0.333266,-0.194927,0.470271,0.24061,-0.14162,0.0471123,-0.382877,-0.368543,0.166103,0.310572,0.0817132,-0.372026,0.423695,0.126869,-0.0121296,0.0261175,-0.00709842,0.00314441,0.355771,-0.0590423,-0.239189,0.339947,0.181326
-0.0449358,-0.0801197,0.29913,-0.291222,0.14082,0.0252114,-0.0139662,0.189745,0.266455,0.174562,-0.209396,-0.155009,0.369775,0.0448291,0.090763,0.125547,0.252336,-0.225601,-0.185154,0.246521,-0.419837,0.0378625,0.0619945,-0.0355866,-0.118196,-0.239741,0.235106,-0.0904127,-0.205156,0.0839908,0.283852,0.440122,0.0435584,-0.146484,0.0152648,-0.0179151,0.100466,-0.356819,0.0586624,-0.137806
0.186848,-0.194982,-0.0606354,-0.162608,0.148506,0.312779,0.389719,0.0747217,-0.183047,-0.243122,-0.400071,-0.0488359,0.181959,0.175054,-0.0355108,0.420115,0.236376,0.486115,-0.0619432,0.30539,-0.184454,0.0376555,0.0692629,-0.514071,-0.257941,0.560961,0.253363,0.127125,-0.307453,0.15485,-0.479686,0.0443703,-0.0681159,0.349244,-0.238589,0.276291,0.146271,0.164682,-0.108235,0.24947
0.345106,-0.0692814,0.0410162,-0.273213,0.390189,0.178521,0.0446317,0.292107,-0.258152,-0.0515248,0.450935,0.0736163,-0.300944,0.161478,-0.106636,-0.0888002,0.470826,0.467356,-0.045358,-0.197056,0.478052,-0.648895,-0.45726,-0.398522,-0.446772,0.267666,0.242542,-0.0763811,-0.218875,-0.029652,-0.282792,0.0869159,-0.012995,0.143937,0.0359877,-0.0559495,0.00717958,0.0521903,-0.0755782,0.0404455
-0.286404,0.0680966,0.253115,-0.534496,0.186889,-0.140359,0.0875097,0.52489,-0.0778629,-0.0606882,0.0092924,0.186129,-0.0909553,-0.715472,-0.0969628,-0.0555739,0.372203,-0.372369,-0.11329,-0.0571745,0.422483,0.10574,-0.035216,-0.321465,-0.143882,0.246223,0.11239,0.148504,-0.253327,0.115311,0.0631324,-0.229317,-0.0941244,-0.18842,-0.170467,0.197353,-0.379584,0.159239,0.325465,0.269958
0.00664017,-0.286007,0.478348,-0.181367,0.139459,0.0021994,0.291275,0.225525,0.403293,-0.247719,-0.123082,-0.567991,0.562294,0.286121,0.0718554,0.29573,0.476344,0.216224,-0.1344,0.0797156,-0.30113,0.420086,0.0422904,-0.433658,-0.587168,0.010135,0.0983174,0.125368,-0.0175689,0.257786,0.24855,-0.218296,-0.307189,0.320441,0.135107,0.438869,0.488653,-0.12322,-0.308238,-0.044541
0.233726,0.0567905,0.0684564,0.271745,-0.414593,0.0891634,-0.00752891,-0.246025,0.148794,0.199408,0.314702,-0.291317,0.0921846,0.277246,-0.00480167,-0.186186,-0.207175,0.0747239,0.0496608,-0.0151637,-0.020597,-0.0477227,-0.312645,0.0520531,-0.0425361,-0.19645,-0.0988354,0.116855,0.322576,-0.332908,-0.174325,-0.0201265,0.343361,0.28401,-0.202313,0.0979887,0.511381,7.58248e-005,0.121458,-0.135877
-0.000991618,0.222425,-0.0328914,0.0554737,-0.417488,0.165189,-0.408403,0.15664,0.512824,0.692861,-0.257532,-0.231904,0.436432,0.255796,-0.0154268,0.71109,0.291097,-0.225809,0.137966,-0.317074,-0.358916,0.40849,-0.347256,-0.0038134,-0.0581086,-0.204668,0.386293,0.0976081,0.419107,0.0999836,0.140182,0.170434,0.213266,0.254546,-0.20915,-0.122054,0.504546,-0.20439,-0.0868055,-0.133338
0.158772,0.328426,-0.011195,0.116587,0.130333,0.355887,0.0586307,-0.253072,0.37017,0.202399,-0.527566,0.0140242,-0.105697,0.0138406,-0.423173,-0.0188496,-0.0901804,-0.30353,0.319031,0.311619,-0.682436,0.524151,-0.184212,0.0444757,-0.152843,0.122646,0.119021,0.361128,0.0196837,-0.192064,-0.179665,-0.235798,-0.0894923,-0.299732,0.0925143,0.21914,0.219215,0.0669503,0.366759,0.16079
0.150892,0.0720495,-0.0972753,0.147169,0.00146842,0.283413,-0.381234,-0.464022,0.620525,0.0970622,-1.35151,-0.198181,0.645539,0.0013011,-0.416109,0.643626,0.0138466,-0.00888867,-0.0102238,-0.0920357,-1.83645,0.95691,0.0260292,-0.542943,-0.0699105,-0.0221676,-0.0190182,-0.0062608,-0.0217622,0.500021,-0.0364979,-0.472693,-0.543278,0.336205,0.0758034,-0.0229351,-0.0396778,-0.286311,-0.455883,-0.0170367
-0.193886,0.0747524,0.368033,-0.269902,0.459278,-0.0566235,0.0360883,0.0221583,0.221593,0.0340325,0.065221,-0.0148442,0.117065,-0.245446,0.231663,0.131346,0.419408,-0.116763,0.0157468,0.225975,-0.372789,0.0360646,-0.152637,-0.198332,-0.183066,0.124714,0.061713,-0.15596,0.12138,0.592354,0.266799,0.521879,-0.106318,0.00249474,-0.0471702,-0.0833544,0.00607736,0.125615,0.122479,-0.104469
-0.28691,0.0834061,-0.0939255,-0.02503,-0.178021,-0.105536,-0.269365,0.301948,-0.317826,-0.313282,-0.208206,0.150874,0.282445,-0.155858,-0.158778,-0.59414,0.121603,-0.0465882,-0.108856,0.12125,-0.0531776,0.223896,-0.348125,-0.183627,0.187465,0.332518,-0.54491,-0.505165,0.258364,0.260086,0.070183,0.0426371,-0.147557,0.429785,-0.367787,-0.148901,-0.461774,-0.199195,-0.102055,-0.160446
-0.0116021,0.00992001,0.173256,-0.0791801,0.156072,0.127472,-0.223704,0.088538,0.37249,-0.126825,-0.239304,-0.0476592,0.259933,-0.271746,-0.189124,0.30101,0.468701,0.196811,-0.105294,0.0718747,-0.526733,0.361897,-0.117578,-0.198881,0.154314,0.235424,0.42719,0.10284,-0.170979,0.343784,0.124134,-0.082209,-0.220999,0.0102178,0.039582,0.390208,-0.112504,-0.202608,-0.453449,0.0138236
0.309468,0.210765,0.0238814,0.185834,-0.0838696,-0.10645,0.356696,-0.108335,-0.293162,-0.377283,0.3712,0.367501,-0.350968,-0.23514,-0.0621989,-0.282665,-0.0923838,0.108035,-0.00737323,0.599269,0.436143,-0.186552,-0.0263898,0.0582392,0.161186,0.652012,-0.135133,0.0547229,-0.211439,0.137302,-0.219452,0.00717581,-0.213069,0.124919,-0.406589,0.275138,0.00987889,0.26444,0.100432,0.0435899
0.000453186,0.198336,0.00833287,-0.459392,-0.22407,0.0837798,0.157167,0.123929,-0.0603959,-0.211249,0.669855,0.118393,-0.217538,-0.631478,0.0192845,0.359091,0.55202,-0.117177,0.164783,-0.140228,0.542274,-0.354689,0.453845,-0.0519983,0.140913,0.216568,0.172283,0.161447,-0.351902,0.0850566,-0.160746,-0.141173,0.131155,-0.053278,-0.145371,0.0049194,-0.486476,0.155006,-0.0324823,-0.286609
0.00513891,-0.16127,0.401039,-0.627265,0.10862,-0.0958705,0.543399,0.500028,-0.046691,0.101611,0.7343,0.075734,-0.278622,-0.0937949,0.0434449,-0.0892711,0.437664,-0.138739,0.0539618,0.0299779,0.514358,-0.701064,0.342886,0.0635956,-0.135014,0.28954,0.164475,0.163105,-0.544149,0.107254,-0.240909,-0.216575,0.0488121,-0.407556,-0.371585,0.126866,-0.0876507,0.0687085,0.203466,-0.18139
0.0191951,-0.111439,0.278754,-0.444454,0.210766,-0.154232,0.205435,0.763538,-0.208803,0.0498227,0.0373386,-0.0812832,-0.108108,-0.0784377,0.438555,0.355541,0.124631,-0.144385,-0.0454065,-0.238511,0.0643974,-0.203366,0.351518,-0.105115,0.431169,0.0668936,-0.306155,0.0591015,-0.264294,0.388909,-0.296047,-0.223197,-0.211655,0.0472017,-0.122776,-0.337952,-0.180032,0.0529266,-0.00585874,-0.00873111
-0.340925,0.376692,0.465907,-0.466648,0.42305,0.240611,0.316859,0.494556,0.265216,-0.0575307,-0.025933,-0.518938,-0.116613,-0.623458,0.0808626,0.237277,0.617784,-0.645974,-0.145792,0.325234,-0.0898299,-0.252642,0.0916257,0.0602063,0.0879616,0.439945,0.00862566,0.0875933,-0.152501,-0.231422,-0.0561397,0.242608,-0.112006,-0.337388,0.0356968,0.300401,0.148203,-0.0534966,0.382081,0.359443
0.361083,0.0814644,-0.34383,0.0149596,0.619592,-0.215719,0.00897883,-0.097306,-0.023137,-0.186076,0.395739,-0.0236589,-0.429479,-0.235036,-0.0298134,-0.285261,0.215272,-0.0150455,-0.210203,0.10192,0.0555358,-0.399483,-0.119369,0.172033,0.0621933,0.547585,-0.228433,-0.297679,-0.0786054,0.231578,-0.0820259,0.428914,-0.132319,-0.0426113,-0.18034,-0.245439,-0.338227,0.178262,0.169292,0.11122
0.075687,0.275874,0.273062,-0.140641,-0.174103,0.399681,0.132178,0.172625,0.315179,0.240111,-0.945417,-0.208196,0.0614179,-0.195551,-0.0404114,0.386077,0.453938,-0.46732,-0.226813,0.628776,-0.533543,0.583695,0.02935,-0.154376,0.065544,0.146249,-0.098981,-0.08955,-0.0525472,0.172062,0.228441,0.0525938,-0.111522,-0.200249,-0.330516,0.160181,0.0140466,-0.170657,0.0602864,0.265671
-0.112665,0.26567,0.602068,-0.277146,-0.22841,0.0910956,0.44864,0.347325,-0.114297,0.278774,-0.254947,-0.218573,0.0380538,-0.401717,-0.0993036,-0.0894452,0.663261,-0.645363,0.00259081,0.548337,-0.000192178,-0.106453,0.202729,-0.211355,-0.20696,0.0281097,-0.171246,-0.0299742,-0.0750998,0.29523,0.447738,-0.0202417,0.00581297,-0.38226,-0.330628,0.291956,0.22866,0.0962988,0.137017,-0.120659
-0.248955,0.159394,0.547763,0.0725099,0.221012,-0.0305721,-0.199729,0.171022,0.300406,0.0810819,-0.311697,-0.101281,0.516738,-0.423952,-0.190014,0.0962533,0.303952,-0.610648,-0.0346617,0.206346,-0.153153,0.46558,0.0186461,-0.139702,0.230889,-0.143609,-0.185907,-0.17111,0.0302147,-0.0975837,0.448937,-0.471007,-0.328629,-0.112879,0.140575,0.47978,0.268467,-0.262167,-0.343551,0.274867
0.247497,0.231274,-0.00161994,0.275308,0.325064,-0.0277405,-0.12544,0.0409706,0.397144,0.269177,-0.126308,0.335218,0.0409998,-0.414145,-0.452375,0.0427112,-0.0774573,-0.404645,0.164648,0.115175,-0.0325996,0.0146698,-0.0715477,0.303735,0.309915,0.0145423,0.0301738,0.0167265,0.0879861,0.138063,0.19099,0.19882,-0.0473984,-0.061183,0.115428,0.0725799,0.0717475,-0.0130553,0.295962,0.291558
0.0398763,-0.0714775,0.0861136,0.0621968,-0.261096,-0.0495827,-0.465029,0.053234,0.210146,0.630611,-0.277163,-0.382932,0.306701,-0.0622332,-0.325258,0.625343,0.099106,-0.432963,0.0387832,-0.0785739,-0.623887,0.10236,-0.288886,-0.26559,-0.235398,-0.163592,0.128976,0.0548942,0.225238,0.509465,-0.0311423,0.125454,0.226796,0.30121,-0.303393,-0.168532,0.328921,-0.36219,0.0782269,-0.170781
-0.0386824,0.411573,-0.446495,0.0986878,0.085201,0.416519,-0.285207,-0.247324,-0.103526,0.078622,-0.827235,0.503703,0.168248,-0.218036,-0.253765,-0.148739,-0.487847,0.235866,0.308996,-0.221212,-0.497285,0.440216,-0.546226,-0.13155,0.22262,0.50005,-0.118802,-0.161919,0.211869,0.327695,-0.322357,-0.429056,0.0197009,0.651202,0.327099,-0.0849149,-0.106043,-0.0466272,-0.440762,0.0606642
0.158911,-0.0900087,-0.136504,0.243221,-0.108049,0.134033,0.209805,-0.451884,-0.0174478,-0.00806008,-0.100815,0.727423,0.363659,-0.355615,-0.0678492,-0.251967,-0.310355,0.301524,-0.0170935,-0.0318234,-0.170181,0.0947218,-0.0541468,-0.138377,0.128601,0.625605,0.00681189,-0.156562,0.0508545,0.523636,0.0638601,-0.0970191,-0.192559,0.22724,0.0502496,0.145959,-0.271526,-0.172428,-0.0444255,0.207169
0.3063,0.121507,-0.369679,0.437661,0.0346862,0.0453642,0.0493332,0.0172894,-0.27791,0.0536004,-0.243368,0.301591,0.230567,0.0243365,0.291335,-0.357432,-0.472807,0.0882904,0.0177573,0.0877736,-0.0964478,0.251649,0.109837,-0.11363,0.338247,0.335804,-0.534766,-0.180519,0.28869,0.425754,0.0361459,-0.0568392,-0.470281,0.590753,-0.255205,-0.324541,0.114457,0.0901878,-0.101932,0.324223
0.102768,0.039046,0.319203,0.0851988,-0.368299,0.276653,0.218589,-0.10004,0.116185,-0.039874,-1.36876,-0.142559,0.171325,-0.285434,0.0973616,0.399654,0.27258,0.0654489,-0.0958479,0.141657,-0.97022,0.643055,0.3144,-0.381899,-0.131809,0.409602,-0.0754058,0.260153,-0.563285,0.116635,-0.178376,-0.338921,-0.0870525,0.162237,-0.292518,0.172923,-0.0638218,0.0460976,-0.284456,0.215031
-0.0794365,-0.0391816,0.146083,0.322387,-0.0620047,0.224114,0.0318981,-0.154629,-0.0218515,-0.251384,-0.287802,-0.129164,0.0976426,0.0430045,0.144499,0.180628,-0.138842,0.407658,0.0882415,0.354797,-0.375592,0.460945,0.140386,-0.25085,-0.0639222,0.323616,-0.0940212,0.256409,-0.0249835,-0.182352,-0.394814,-0.195836,-0.139075,0.294913,0.0192293,0.22074,0.187351,-0.16998,-0.154785,-0.172717
0.168496,-0.290577,0.227687,-0.148088,-0.234711,-0.39608,0.342275,-0.11711,-0.224003,-0.200576,0.379255,-0.0450115,-0.0520739,-0.0144872,0.372015,-0.133625,0.143291,0.429287,-0.0636485,-0.0714186,0.678357,-0.443077,0.19119,-0.0182422,-0.0584308,0.238172,0.107596,-0.137671,-0.365993,0.167204,-0.136314,0.500127,-0.280406,0.111046,-0.338541,0.0617692,0.103279,0.117096,0.267546,-0.324419
0.225418,-0.158979,0.0640644,-0.20087,0.0805302,-0.218166,0.20878,-0.15561,-0.535945,-0.303786,1.00483,0.339674,-0.274544,-0.62976,0.0107249,-0.507198,0.483059,0.0333599,0.0591473,-0.0981241,0.823295,-0.620626,-0.111303,0.0601622,-0.0422213,0.396938,0.100302,-0.215042,-0.232431,-0.0978262,0.0302832,0.0831546,-0.24438,-0.28123,0.0222195,0.420213,-0.0448186,0.277153,0.519771,0.171608
0.189172,-0.0219512,0.437269,0.0553722,-0.169827,-0.119529,-0.02438,0.117811,-0.368354,0.335878,0.737465,0.181016,-0.390523,-0.333936,0.10824,-0.147969,0.26498,-0.337853,0.182006,0.0319095,0.566988,-0.493512,0.0322019,0.0540759,0.164578,0.241351,-0.0590871,-0.0560898,-0.004404,0.202702,-0.0286022,0.487237,-0.0443388,-0.0552315,-0.134144,-0.01682,0.0422915,0.206554,0.356252,0.0788641
0.555156,-0.0902312,-0.0110667,0.0538703,0.116156,0.0750687,0.10807,0.124073,-0.139967,0.0474737,0.570933,0.353693,-0.158905,-0.511038,0.136723,-0.260293,0.136028,-0.476197,0.0643811,0.244326,0.155228,-0.335155,0.0446776,-0.171359,0.115166,0.589602,-0.276137,0.0538244,-0.208748,0.47351,-0.299377,0.363664,0.0209201,-0.0969693,-0.17777,0.0145053,-0.143466,0.32809,0.170533,0.0511294
0.0179463,0.223895,0.126866,-0.215757,-0.00604232,0.0665584,0.30687,-0.11208,0.0735141,-0.47448,0.0935426,-0.34192,-0.0438965,-0.534917,-0.0554434,-0.52008,0.106155,-0.242536,0.0333188,0.549409,0.221385,-0.162923,-0.145693,-0.38651,-0.0903083,0.417417,-0.14927,0.256412,-0.283215,0.279629,-0.139713,-0.155504,-0.0951313,0.0527223,-0.128362,0.152244,-0.317869,0.196321,0.0112618,0.129995
0.0789825,-0.0898651,0.174487,-0.202774,-0.261859,0.202222,0.308202,-0.19278,0.205934,-0.00847284,-1.16883,-0.304592,0.422131,-0.417524,0.0321691,0.272192,0.769191,-0.0725347,-0.257682,0.971105,-0.858225,0.534268,0.221174,-0.624452,-0.29225,0.649695,0.0632929,0.137349,-0.304324,0.55199,0.372816,0.00613986,-0.301198,0.140109,-0.472988,0.372434,-0.164673,-0.0845227,-0.00847825,0.208638
-0.297407,0.313776,0.0435924,-0.00691957,0.441202,-0.0992716,-0.186016,-0.0540052,0.147804,0.326686,-0.408255,-0.0177856,0.246446,-0.594846,-0.236762,0.322409,0.3075,-0.407407,-0.274747,0.0460187,-0.202143,0.408349,-0.0730061,-0.328989,0.118756,0.0489089,-0.116586,-0.362217,0.434828,0.440831,0.598289,0.103143,-0.0396876,-0.259259,-0.0330713,0.211877,-0.00798277,-0.533025,-0.035149,0.155897
-0.107529,0.372209,0.69098,-0.113254,0.25444,0.187421,-0.0705328,0.119654,0.461846,0.0996728,-0.618435,0.17526,0.146022,-0.362676,-0.235509,0.443377,0.674936,0.191844,-0.146032,0.467801,-0.514374,0.505165,0.212793,-0.479173,-0.20719,-0.0291438,0.236356,0.0144973,0.147206,0.48598,0.371676,-0.054848,-0.513584,-0.124752,-0.171588,0.470999,0.190303,-0.365783,0.0449885,0.140166
-0.479915,0.423916,0.243399,0.106885,-0.0574786,0.0406816,0.0413487,0.32283,0.248799,0.367172,-0.158875,-0.0144022,0.129098,-0.497411,0.0167579,0.243313,0.361515,-0.839115,0.128997,0.239674,0.112487,0.22256,0.0525676,-0.135755,0.229191,-0.324305,0.293119,0.202841,0.324838,-0.0746715,0.457811,0.0926186,-0.115717,-0.458618,-0.237107,0.346619,0.128194,-0.105137,0.440397,0.0487044
0.51429,-0.0284039,-0.0925959,0.168642,-0.0691834,0.130059,-0.117052,0.0453179,0.579099,0.704139,-0.242851,-0.392782,0.0575992,-0.542826,-0.323665,0.576639,-0.168382,-0.715028,0.236879,-0.0844818,-0.598265,0.0345913,-0.0811816,0.132661,0.123961,-0.551425,0.435714,0.341389,-0.0808253,0.617637,0.0545779,0.528643,0.175584,-0.361351,-0.156747,-0.0206309,-0.186075,-0.032699,0.22328,0.0918714
0.360532,0.182586,-0.184155,0.0828429,-0.0484697,-0.087324,-0.259879,-0.125818,0.325365,0.766973,-0.300792,-0.325882,0.43821,-0.443036,-0.194329,0.803504,-0.195372,-0.343775,0.0746742,0.308412,-0.498137,0.577632,-0.0941835,0.0208956,0.0859166,-0.432182,0.0800254,0.232153,0.281023,0.606462,0.131902,0.216938,0.232272,0.0231269,-0.13957,-0.392485,-0.0572947,-0.0458501,0.0961716,-0.159062
-0.547574,0.301448,-0.136244,0.017893,-0.177768,0.352247,-0.102808,-0.0198906,-0.0318914,0.20507,-0.850214,1.00924,0.302887,-0.408121,-0.0884047,-0.166142,-0.136453,-0.334707,0.00644821,-0.0836645,-0.580252,0.359224,-0.388897,-0.170036,0.0193228,0.905228,-0.118505,-0.139519,-0.261359,0.310153,-0.125676,-0.455054,-0.0572436,0.310733,-0.194304,0.0650446,-0.157662,0.0904878,-0.0104112,0.000706136
-0.206851,0.243927,-0.430662,0.389532,-0.160016,0.297022,-0.0625915,0.254841,-0.26423,0.00502583,-1.7747,1.30847,0.846487,-0.686783,0.0306657,0.344823,-0.515282,-0.0256451,-0.208593,0.072972,-1.55811,1.42736,0.37109,-0.303756,0.392767,1.30443,-0.148344,0.297475,-0.247014,0.89568,-0.0100343,-0.993335,-0.568678,0.635538,-0.0366055,0.070395,-0.64961,-0.297822,-0.395571,0.46007
0.383234,0.146278,-0.524492,0.627675,0.253181,-0.207228,-0.22,-0.249285,-0.647407,0.0431231,-0.0313792,1.07214,0.135025,-0.347587,-0.178457,-0.572863,-0.969797,0.279904,0.0240063,-0.30428,0.264847,0.241762,-0.427758,0.0173676,0.240405,0.505341,-0.472451,0.0109687,0.079139,0.239235,-0.213539,-0.15258,-0.25469,0.143051,-0.271017,-0.0656376,-0.507363,0.010768,0.291868,0.514963
0.444433,0.353681,-0.47047,0.669262,-0.0750905,0.0792598,-0.309379,-0.145275,-0.390525,0.0142063,-0.892578,0.979054,0.804337,-0.232322,-0.0133477,0.0613736,-0.393825,-0.203607,-0.0532992,0.147437,-0.91533,0.799169,0.395659,-0.0812654,0.37153,0.628343,-0.458092,-0.266911,0.113729,0.547036,0.0388696,0.136682,-0.389293,0.0496177,0.0486711,0.313148,-0.694926,-0.281047,-0.253067,0.420437
0.19479,-0.0817488,0.280741,0.369656,-0.460316,0.293937,0.263316,-0.210294,-0.105001,-0.209677,0.165967,0.290331,0.0995109,-0.0169933,0.107758,-0.279923,-0.24671,-0.115997,0.0320963,0.545578,0.136824,0.191234,0.120709,-0.119045,0.116956,0.85612,-0.446195,0.168116,-0.134144,-0.413461,-0.28478,-0.132098,-0.16126,-0.165026,-0.42356,0.411109,0.00570802,0.0968949,0.250489,0.106192
-0.36834,-0.0273551,0.463811,0.205117,-0.469194,-0.0297858,0.222915,0.113658,-0.649785,-0.326117,0.572686,0.433083,0.308364,-0.22536,0.23446,-0.898688,0.176112,0.036708,-0.100979,0.774539,0.362541,-0.253914,-0.127135,0.0849495,0.253863,0.763055,-0.411972,-0.268833,-0.0166792,0.185099,0.0303817,0.199158,-0.299183,0.136694,-0.309212,0.386752,-0.0240255,0.0351866,0.443432,0.295404
0.305976,-0.106727,0.329444,0.0136661,-0.435135,0.138442,0.147239,0.0677596,-0.277618,-0.280573,0.483545,0.383211,-0.069397,-0.476099,-0.250069,-0.452874,0.197009,0.13162,0.0357731,0.0917978,0.37509,-0.230042,-0.0878591,-0.177368,-0.0778557,0.553776,0.13529,-0.109219,-0.276045,0.157923,-0.0801434,-0.272997,-0.295093,0.158948,0.0407375,0.68519,-0.0773497,0.103152,0.16546,0.498758
0.189481,-0.38351,0.521113,0.315682,-0.361839,0.107696,-0.170847,0.114328,-0.179156,0.0483192,0.697326,0.396847,0.058483,-0.369474,0.0577775,-0.252318,0.376448,0.0186937,0.0888889,0.401313,0.0772251,-0.221631,0.0914908,-0.31518,-0.138387,0.440955,0.0580747,-0.196036,-0.323486,0.442251,0.123576,0.479307,-0.214723,0.146797,-0.174317,0.337173,0.0672995,0.271845,0.190942,0.0997647
-0.0281106,-0.140517,0.497256,-0.0135973,-0.140069,0.190967,-0.000990515,0.165283,-0.28754,-0.173289,0.160488,0.303829,0.326843,-0.657498,-0.00960267,0.000812721,0.415876,-0.243264,0.104992,0.633104,0.12997,-0.0178405,-0.210689,-0.219712,-0.109539,0.455311,0.00559304,-0.346193,0.0598572,0.371155,-0.0687421,-0.00295618,-0.295327,0.117851,-0.0640852,0.285912,0.00236175,0.166288,0.145192,-0.0132101
0.027094,-0.00312174,0.0940442,0.132588,-0.0354958,0.0802675,0.0944592,0.256667,-0.116534,-0.381655,-0.0927455,0.4257,0.431362,-0.505326,-0.00463994,-0.44253,-0.0405597,-0.414641,-0.0680201,0.792204,-0.0100062,0.238213,0.163643,-0.299835,0.182052,0.18848,-0.154885,-0.153409,-0.186771,0.464098,0.181681,-0.060483,-0.571722,-0.10791,0.0658162,0.250929,-0.243872,-0.0226204,0.102265,0.222051
-0.0970192,0.12272,0.209004,-0.108207,0.0351432,-0.136146,-0.311453,0.128065,0.188014,0.181796,-0.264366,-0.163941,0.338829,-0.455135,-0.0892314,0.379013,0.590467,-0.926368,-0.143009,0.253273,-0.0167149,0.330709,0.18936,-0.28244,-0.120111,-0.162319,-0.0199465,-0.116425,0.00411867,0.349605,0.43216,-0.1532,-0.411756,-0.174048,-0.185816,0.162386,-0.0827764,-0.311561,-0.0988649,0.110126
0.351962,-0.0394091,0.250804,-0.0850618,0.0760994,-0.142334,0.0793889,-0.0791852,0.49128,0.346499,-0.284231,-0.258917,0.0669501,-0.0318277,-0.0144056,0.531016,0.407724,-0.576393,0.0435903,-0.235068,-0.656165,0.130235,0.00565059,-0.194797,-0.164289,-0.495618,0.345001,0.0431735,-0.168289,0.167358,0.450089,0.145996,-0.0983642,-0.330302,-0.0481994,0.238855,0.285802,-0.189716,-0.194534,0.0351781
0.06308,0.0141783,0.540983,-0.0193935,0.181877,-0.270173,-0.154014,-0.14272,0.243097,0.264594,0.116427,0.335202,0.290216,-0.13324,-0.0109963,0.254789,0.859419,-0.100172,0.0313155,-0.0237712,-0.272471,-0.0884276,-0.2913,-0.333889,-0.499541,-0.334035,0.324873,-0.250259,0.347323,0.0276806,0.296133,0.18195,0.0392018,-0.194335,-0.0648527,0.381313,0.263704,-0.360437,-0.0343956,-0.196891
-0.364687,0.151558,0.418341,-0.192926,0.318086,0.224198,-0.259943,0.319369,0.543274,0.221545,-0.835123,-0.164815,0.138883,-0.455086,0.0197735,0.486156,0.535111,-0.698123,0.317077,0.0687569,-0.712521,0.432873,0.0168516,-0.300037,0.0482409,-0.350345,0.64077,0.213397,-0.0282868,0.31037,0.239818,-0.168875,-0.551383,-0.141337,0.0681524,0.258703,0.128365,-0.155636,-0.121175,-0.0943354
0.14815,-0.0868248,0.123795,-0.14563,0.38628,-0.206568,-0.340628,0.369487,0.280662,0.481982,0.0991844,-0.0867455,0.41333,-0.56162,0.094441,0.395501,0.255356,-0.40059,0.348172,-0.23777,-0.283682,-0.0568086,0.468162,-0.198821,0.250305,-0.276066,0.335682,0.218079,-0.193009,0.472562,0.230114,0.123913,-0.278025,0.0612813,0.0619508,-0.0139828,-0.208322,-0.210987,-0.175464,-0.0863858
0.0305689,-0.272015,0.0724795,0.126942,0.112883,-0.0331719,-0.196825,-0.0641781,0.337977,0.448542,-0.13459,-0.430948,0.294608,0.0234475,-0.0406445,0.383972,-0.0874361,-0.131292,0.0634223,0.559469,-0.287691,0.430842,0.182019,-0.07043,0.140175,-0.361506,0.13674,-0.0355937,-0.0221496,0.0951492,0.322874,0.114701,0.0258433,0.0769386,0.0202155,-0.250226,0.122165,-0.385305,-0.327278,-0.0283189
-0.271707,0.250329,-0.413505,0.0614323,0.0421213,-0.0477706,0.0231081,-0.00678253,0.0412578,-0.0548875,-0.661021,0.516485,0.0449999,-0.172339,-0.0947186,-0.210176,0.298669,0.00246989,-0.111659,-0.265941,-0.331973,0.231768,-0.105538,-0.0528551,-0.0774388,0.253892,0.302191,0.118723,-0.157974,0.230139,-0.137984,-0.365157,-0.0771772,0.0433655,0.203975,0.0359911,-0.342276,-0.159564,-0.557862,0.296544
-0.273462,0.659063,-0.558346,0.250195,-0.323982,0.26306,-0.0316322,0.0842094,-0.449766,-0.410609,-1.3574,0.901515,0.24017,-0.382954,0.122308,-0.222084,-0.323175,-0.136417,0.141049,-0.178292,-0.655252,0.60151,0.215872,-0.331491,0.0816113,1.1444,-0.199571,0.249678,-0.290541,0.467389,-0.238477,-0.637759,-0.390362,0.44766,-0.151436,-0.234241,-0.434164,0.13694,-0.7131,-0.000238531
-0.151774,0.197816,-0.498293,-0.073103,-0.0944249,0.120299,0.151087,0.211053,-0.499679,-0.280494,-0.702652,0.716583,0.000175904,-0.294544,0.0358517,-0.0375902,-0.0840255,-0.0146945,0.157186,0.101779,-0.423013,0.376965,0.128935,-0.500714,-0.0461943,0.875359,-0.240848,0.307213,-0.43746,0.483807,-0.132164,-0.479441,-0.375763,0.0666699,-0.424854,-0.0261146,-0.38143,0.220929,-0.110211,-0.0947089
0.154426,0.265505,-0.42855,0.275867,-0.144565,0.0885325,0.262919,-0.0566008,-0.475395,-0.368063,-0.370429,1.1005,-0.114367,-0.486614,0.115062,-0.345845,-0.280139,-0.0631135,0.204274,0.0517563,0.12294,0.45868,0.0963827,-0.0689759,0.225472,1.0599,-0.334541,0.260529,-0.301582,0.357467,-0.272379,-0.479141,-0.185185,-0.13449,-0.259385,0.142035,-0.525949,0.522548,0.0598986,0.27096
0.281546,0.185022,-0.18348,0.616427,-0.588002,0.249843,0.0554042,0.0613015,-0.193299,-0.120456,-0.317068,0.772511,0.125341,-0.203914,0.253571,-0.232504,-0.514746,0.190173,0.0864328,0.434855,-0.435703,0.294947,0.32466,0.043808,0.346122,0.553333,-0.272445,0.138038,-0.0532624,0.019739,-0.0482226,0.027797,-0.11674,0.17255,0.0212331,0.0898122,-0.147437,0.115846,-0.0847558,0.0869433
-0.200319,-0.0293681,0.508412,0.339538,-0.355486,-0.0431554,0.190335,0.0743042,-0.384632,-0.165459,0.157003,0.697244,0.44046,0.000966334,0.126796,-0.575697,-0.130777,0.0749047,-0.17165,0.583815,0.142428,-0.0528868,-0.130873,-0.029699,0.196334,0.545796,-0.318824,-0.368199,-0.0136767,-0.136415,0.00837957,-0.135277,-0.194207,0.0777798,-0.385704,0.370311,0.218006,-0.286037,0.394133,0.301738
-0.114633,0.11091,0.346016,0.138418,-0.216913,0.0672157,0.259121,0.152075,-0.355825,-0.209589,0.567591,0.589972,0.131222,-0.21563,0.347022,-0.381767,0.14003,0.116771,0.0317481,0.548525,0.268679,-0.439223,-0.00578908,-0.0438083,0.0734877,0.554028,0.0347248,-0.106639,-0.192393,0.199223,-0.120006,-0.504513,-0.0231327,-0.123335,-0.234114,0.344814,0.140521,0.241695,0.569477,0.431727
-0.00269838,0.0936179,0.503361,0.180562,0.0354138,-0.0119002,-0.469989,-0.14236,-0.267405,-0.286718,0.564577,0.655555,0.0849919,-0.577894,-0.254857,-0.686327,0.540498,-0.163943,-0.0347226,0.632044,0.61797,-0.339853,-0.549382,-0.442101,-0.388166,0.485839,0.192509,-0.497735,0.0507589,0.190109,-0.0460127,-0.136062,-0.245648,0.138622,-0.113034,0.478822,0.146956,-0.0323472,0.326114,0.216405
-0.153673,-0.145609,0.441153,0.157734,0.303615,0.0894756,0.0645618,0.163574,-0.046455,-0.567904,0.289537,0.653211,0.0262143,-0.414065,-0.249543,-0.547049,0.421096,0.219463,-0.13655,0.411289,0.260236,-0.186945,-0.00726933,-0.398029,-0.26616,0.151028,0.223638,0.0360739,-0.199189,0.0433548,-0.0790454,-0.517344,-0.292229,-0.021193,0.170817,0.513158,0.169377,0.0995406,0.0315949,0.227419
0.000757976,-0.225136,0.532156,0.0323414,-0.0546213,-0.136578,-0.0396346,0.373888,0.174025,0.118601,0.24065,0.664793,-0.0495675,-0.303753,-0.159621,-0.231297,0.181468,-0.192148,-0.189921,0.401191,-0.118791,0.0359952,-0.0818176,-0.410572,-0.405259,-0.00427256,0.450832,0.129388,0.0372797,0.405316,0.191716,-0.23819,-0.206029,-0.0781685,-0.147423,0.4088,0.427697,-0.267811,0.224129,0.135736
-0.506478,0.0172285,0.490827,-0.104783,-0.0655848,-0.115154,-0.114709,0.226258,0.352133,0.423602,0.104225,0.280748,0.0879426,-0.435535,-0.0168598,0.410412,0.700792,-0.485535,-0.104759,0.411437,-0.217918,0.0419988,0.216245,-0.190278,-0.386932,-0.379295,0.626916,0.277411,-0.0196671,0.446256,0.373511,0.0527306,0.151248,-0.250121,-0.0896244,0.317042,0.0978593,-0.547406,0.0935981,-0.154909
0.124462,0.111853,0.24641,0.197876,0.127526,0.0227123,-0.505211,-0.145204,0.516115,0.152935,-0.249511,0.0952005,0.563892,-0.299522,-0.284894,0.626336,0.37165,-0.115212,-0.128157,-0.154425,-0.852201,0.319122,-0.183807,-0.135558,-0.250599,-0.284545,0.436653,-0.0404205,0.0796143,0.554537,0.324277,0.22397,-0.365755,-0.0634067,-0.034422,0.384198,0.297146,-0.335966,-0.233369,-0.100304
-0.137551,0.270874,0.0750162,-0.165848,0.22605,0.192226,-0.0271553,0.154615,0.730253,-0.317267,-0.496202,0.21758,0.0629764,-0.658612,-0.0432096,0.378612,0.388654,-0.218935,0.0772923,-0.0125453,-0.301162,0.1021,0.152601,0.0335942,0.240784,0.0284274,0.536516,0.193559,0.103617,0.202022,0.428827,0.166383,-0.17619,-0.541656,0.0658557,0.68787,-0.205324,-0.190011,0.0557439,0.162119
0.325141,0.240372,-0.15193,0.122958,0.0355076,0.0744188,-0.29871,0.145168,0.748665,-0.0364319,-0.736226,-0.0179574,0.111566,-0.351573,0.136187,0.285574,0.00306787,-0.11569,0.401891,-0.447872,-0.454643,0.383774,0.122157,0.15603,0.425897,-0.230587,0.322027,0.385013,0.1185,0.0948347,0.0813578,0.177142,-0.373484,-0.151755,0.170288,-0.0504531,-0.213852,0.0265018,-0.108173,0.0220523
0.240472,-0.114259,-0.114741,-0.116278,0.557151,-0.202838,-0.016863,0.267849,0.349611,0.0469426,-0.162498,0.0138168,-0.0835873,-0.526414,0.32032,0.173325,0.0388776,-0.0750085,0.28908,-0.262629,-0.074511,0.227691,0.343999,-0.0012809,0.365552,-0.34728,0.348987,0.262406,-0.0656345,0.21613,0.396256,0.0861873,-0.306213,-0.273578,0.353279,0.0664128,-0.420701,-0.00635717,-0.300989,0.142103
0.129452,-0.0506537,-0.0542334,0.0358436,0.251492,-0.202833,0.108331,0.0692399,0.0554382,0.476477,0.17384,-0.00985717,-0.0638238,-0.564584,0.194478,0.121033,-0.257336,-0.341928,0.0396258,-0.262644,0.297124,-0.088317,0.35715,0.172103,0.22235,-0.226096,-0.0566542,-0.0600339,-0.114933,-0.0689001,0.250458,0.37146,0.0173999,-0.460062,0.18342,-0.297775,-0.322953,0.0632267,0.253833,0.0655301
-0.0259473,0.269296,-0.982657,0.500208,-0.0122883,-0.328496,-0.487793,-0.150358,-0.0375126,-0.129755,-0.680683,0.580307,0.299431,-0.19156,-0.230513,-0.0856384,-0.645198,0.0617318,-0.12138,-0.57148,-0.564865,0.715342,0.217929,0.157782,0.50682,0.22254,-0.208105,0.0858278,0.228795,0.438103,-0.0704167,-0.226699,-0.262722,0.292242,0.403611,-0.543834,-0.713671,-0.458012,-0.469684,0.126146
-0.0615442,0.358827,-0.813628,0.0992486,-0.072171,-0.163954,-0.37144,-0.174401,-0.365726,-0.458525,-0.413954,0.641617,0.094013,-0.237549,0.157598,-0.409757,-0.179903,0.158307,0.0857773,-0.377056,-0.106496,-0.00285175,0.0753305,-0.0607783,0.240445,0.808324,-0.0467171,0.0183771,0.0928818,0.282,-0.177373,-0.0104613,0.0457382,0.445622,0.45954,-0.157502,-0.749426,-0.134037,-0.503791,-0.0238408
0.391986,-0.161962,-0.342141,0.0907152,-0.262465,-0.112258,0.0703082,-0.161085,0.0908954,0.152057,-0.369089,0.161943,0.102381,-0.0119273,0.115383,-0.186304,-0.180236,-0.146675,0.165281,0.529182,-0.232354,0.434885,0.283952,-0.338924,-0.0227977,0.31036,-0.0238386,0.28364,-0.316971,0.196696,0.0120546,-0.165428,-0.33607,0.124718,-0.213408,0.133046,-0.0581849,0.156144,-0.297525,0.140213
0.0856998,0.207401,-0.550519,0.449779,-0.310541,0.189558,-0.22808,-0.0948313,0.0585057,-0.0402411,-1.28776,0.796363,0.504198,-0.0993142,-0.137495,0.265767,-0.523724,0.127706,0.165358,0.4657,-0.991769,1.18672,0.00370968,-0.119169,0.160492,0.376242,-0.0510227,0.151392,-0.010544,0.683887,-0.241503,-0.655889,-0.181258,0.539596,0.306094,-0.125137,-0.388461,-0.21182,-0.514134,0.22959
0.0719113,0.0388635,-0.283817,0.273757,-0.464131,0.111466,0.124668,0.0635559,0.203716,-0.379475,-0.590618,0.423663,0.503409,-0.354239,0.149712,-0.190766,-0.170012,0.10108,0.0518306,0.518612,-1.32998,0.768423,0.481782,-0.0816786,0.0781003,0.386901,0.176122,0.388722,-0.520256,0.452814,0.116353,-0.581021,-0.146346,-0.0943525,0.165511,0.149493,-0.441452,0.134552,-0.617657,0.0703214
-0.366132,0.16639,0.345502,0.0371148,-0.336398,-0.162962,-0.390643,0.0314917,-0.213179,0.070872,0.735821,0.333763,0.399321,-0.0135753,0.0371666,-0.311254,-0.222637,0.0516924,0.107933,0.217267,-0.0628242,-0.364858,-0.36692,-0.0812772,-0.260236,-0.116106,0.148061,-0.145844,0.0406662,-0.0733908,-0.032552,-0.0271443,-0.0670197,0.260052,-0.249263,-0.0881821,0.0760607,-0.00571099,0.0419323,-3.59994e-005
0.189156,0.126972,0.0182244,0.668299,-0.00395331,-0.536692,-0.325058,-0.10151,-0.42566,-0.207756,0.125517,0.77833,0.525717,-0.117439,0.299777,-0.716125,-0.809196,0.256851,-0.187082,0.240974,-0.0881245,0.270458,-0.0171119,0.247281,0.525815,0.228787,-0.424924,-0.325935,0.39492,0.093634,0.0461246,-0.292949,-0.261695,0.257265,-0.0670825,0.231253,-0.027799,0.251072,0.392855,0.669995
0.0990374,0.0206247,0.0328873,0.261845,-0.121494,-0.466797,-0.609967,-0.043614,-0.0824291,-0.278812,0.394632,0.462302,0.0054523,-0.214749,-0.265314,-0.524939,0.031965,-0.0484,-0.16845,0.366954,0.140763,-0.0375889,0.243514,-0.218738,-0.227262,-0.0647492,0.1726,-0.119635,-0.0224268,0.153823,-0.0130353,0.0468664,-0.0390432,-0.0965758,-0.0942071,0.239042,0.0931693,0.0796558,0.141064,0.2879
-0.127043,-0.0985893,0.210075,0.449751,0.499199,-0.701424,-0.470845,-0.0920081,0.0460808,-0.182316,0.437812,0.789353,0.258324,-0.372715,-0.463355,-0.600802,0.0662809,-0.0116983,-0.396119,0.564726,0.257376,-0.0659787,0.375178,0.0758582,-0.201582,0.0129916,0.488088,-0.306318,-0.00699086,0.190378,0.304498,0.0761441,-0.0365606,-0.149945,0.243745,0.452359,-0.0692691,-0.389799,0.199755,0.486691
0.137408,0.191881,0.402841,0.492467,-0.242692,-0.340324,-0.416359,0.0333304,0.187405,0.220787,0.180245,0.31136,0.139141,-0.159857,-0.189207,-0.295968,-0.65119,-0.162397,0.0933836,0.21021,-0.169897,0.177267,-0.129921,0.0324425,0.249492,-0.53304,0.129555,0.218683,0.215212,-0.129816,0.0640837,0.0967452,0.0601726,-0.0919115,-0.190821,0.00903667,0.311698,0.108586,0.310378,0.250444
0.138675,-0.0757097,0.433596,0.569512,-0.105848,-0.227987,-0.283815,-0.0661776,0.139338,0.24282,0.363354,0.266048,0.623894,-0.0674331,-0.0813449,0.0387127,0.0612725,0.0277607,-0.163065,0.15116,-0.40171,0.216404,0.256209,-0.193802,-0.0745148,0.178863,0.204041,0.06767,-0.154138,0.349299,0.443327,-0.0340915,-0.206506,0.210519,-0.203724,0.256094,0.0788112,-0.0550378,0.126441,0.0735037
-0.0263643,0.205866,0.175487,0.0820694,-0.217668,0.0986948,0.0742998,0.23743,0.575957,-0.000279667,-0.379459,-0.110997,0.502368,-0.38398,0.0794757,-0.155599,0.219339,-0.464539,-0.00403821,0.0574302,-0.423325,0.444505,0.435077,0.0930345,0.130637,-0.445667,0.323896,0.215553,-0.184757,-0.136341,0.504285,0.179652,-0.2375,-0.502028,-0.128098,0.35783,-0.131276,-0.0676025,0.261378,0.0565762
-0.353783,-0.19977,0.0789684,0.0061648,0.0617219,0.0612938,0.300531,0.15028,0.329879,-0.768039,-0.167382,-0.0656585,-0.354962,-0.0384591,0.0620281,-0.722556,-0.150108,0.158547,0.00236438,-0.14153,0.406698,-0.436739,-0.104843,0.217252,0.139147,0.134474,0.0231448,0.118774,0.20771,-0.465448,0.0577792,-0.215137,0.0869444,-0.178724,0.211425,0.391548,-0.0517181,0.0257584,0.268815,0.283245
-0.125012,-0.0566648,-0.237095,-0.0839357,0.107912,-0.0723911,0.1251,0.291712,0.37643,-0.419654,-0.133222,0.1967,-0.161284,-0.481314,0.180307,-0.462383,0.227542,-0.619488,-0.0916685,0.180022,-0.284662,-0.229911,0.52749,0.141631,0.282442,0.0418225,0.0934364,0.271461,0.0119335,-0.083103,0.50614,0.22922,-0.212188,-0.531479,0.225302,0.252845,-0.599564,-0.0994837,0.150495,0.136221
0.0854776,-0.388414,-0.148551,-0.383242,0.229153,-0.395757,0.105844,0.148704,0.0578175,-0.194543,0.0902667,-0.00531384,-0.165549,0.0166777,0.195145,0.0473948,0.0522771,0.235702,-0.0905901,-0.413341,0.291658,-0.240466,0.34603,-0.144658,0.00292856,-0.380398,-0.0448217,-0.0404691,0.0461627,-0.17307,0.0263355,-0.0770581,0.0349258,-0.051597,0.260638,-0.302431,-0.192806,-0.187116,-0.484444,-0.180595
0.589202,-0.153054,-0.333873,-0.153262,0.277994,-0.0925347,0.281811,0.152107,0.192034,-0.0295111,-0.0779748,0.108517,-0.156867,-0.217594,0.146849,0.26463,-0.381792,0.117967,0.0606457,-0.504206,0.0378507,0.104533,0.555693,-0.253756,0.274265,-0.0454283,-0.0628422,0.307491,-0.465074,0.12033,-0.319551,0.0983654,-0.279898,-0.0694629,0.0906207,-0.297704,-0.267365,0.338936,-0.210096,-0.0351776
0.0112271,-0.116029,-0.511016,0.23946,-0.216229,-0.263553,0.122893,0.242523,-0.0182932,-0.183686,-0.491498,0.0978039,0.222576,0.24407,0.261664,-0.0819929,-0.371054,-0.0019455,-0.303468,-0.343451,-0.260039,0.423057,0.581468,-0.0163968,0.302966,0.103348,-0.31392,-0.0387512,0.0173942,-0.200975,0.304695,-0.0805285,-0.15825,-0.00295878,0.227017,-0.189089,-0.311637,-0.0341059,-0.120967,0.156651
-0.0654881,-0.116374,-0.0902663,-0.14472,-0.416064,-0.0350003,0.00274858,-0.014721,-0.0171427,-0.133198,-0.650651,0.162729,-0.0466301,-0.0124456,-0.027865,-0.41826,0.390011,0.139067,-0.146729,0.134333,-0.447819,0.265718,-0.100281,-0.200312,-0.101788,-0.0560145,0.232134,0.005006,0.147716,-0.265855,0.188268,-0.0528105,0.010129,0.10449,0.0524049,0.0147932,-0.0570704,0.0510752,-0.187405,0.0376723
0.264876,0.033548,-0.137627,0.0914556,-0.541354,-0.0350492,0.0596106,-0.0614634,-0.0444492,-0.0978536,-0.541994,0.0440832,-0.121068,-0.134031,0.097388,-0.594604,-0.186019,0.247848,0.0303323,-0.0441687,-0.360472,0.472809,0.204779,-0.0159373,0.324461,-0.112084,-0.307914,0.221588,-0.435118,-0.493149,-0.125975,0.0312466,-0.257506,-0.345052,-0.268979,0.215563,-0.130242,0.461698,0.220639,0.346718
0.275791,-0.183227,-0.303549,0.0835859,-0.243779,-0.156804,0.174286,-0.183053,0.0337858,-0.036448,-0.418322,0.190455,0.103314,-0.00464856,0.306293,-0.289151,-0.180182,0.483666,0.0145059,-0.0767526,-0.19917,0.341532,0.308666,0.086398,0.40479,-0.295411,-0.073711,0.263008,-0.668538,-0.191377,-0.0407914,0.0425789,-0.086451,-0.184618,-0.0195324,0.162245,0.112754,0.40469,-0.125144,0.0291022
0.106118,0.119524,-0.512921,0.216886,-0.333539,0.105583,0.174864,-0.0762473,0.18751,-0.267405,-0.257864,0.0865433,0.147045,0.135732,0.376903,-0.156137,-0.377401,0.334034,0.136151,-0.233547,-0.146923,0.238784,0.0311551,0.256748,0.181497,-0.268,-0.30013,0.261186,-0.0826201,-0.612738,-0.152003,-0.177205,0.179643,-0.0872174,0.168367,-0.21091,0.0401088,0.313319,-0.136297,0.174715
0.518955,-0.288794,-0.387122,0.269986,-0.510739,-0.301761,0.00724885,-0.402038,0.0876359,0.346965,0.383529,0.0403726,0.0751433,-0.0709151,0.21713,-0.0839952,-0.504935,0.364493,-0.0514587,-0.288278,-0.0588272,-0.319971,-0.0143065,0.171613,0.0222733,-0.334966,-0.101938,0.0938001,-0.378318,-0.376643,-0.513022,0.303152,0.0523302,-0.350112,-0.132253,-0.0100133,0.245827,0.534822,-0.0052894,-0.0428079
0.290537,0.223759,-0.0355493,0.240502,-0.0386537,-0.295382,-0.144278,-0.354288,-0.282186,0.259357,0.386281,0.676371,-0.000680254,0.0922959,0.0338279,0.0751048,-0.471653,0.303372,-0.119918,-0.149046,0.0818609,-0.0451007,-0.40541,0.116479,-0.0137552,0.105896,-0.19704,0.0442507,0.310383,-0.15937,-0.372627,-0.399364,0.211435,0.0450363,-0.000511976,0.250244,0.167197,0.363999,0.157649,0.183342
-0.0356316,0.358121,-0.329277,0.461356,-0.00672396,-0.324982,-0.355024,-0.649711,0.250481,0.112199,-0.0847497,0.15662,0.0230482,0.151825,-0.295993,-0.113658,-0.636221,0.133822,-0.341755,-0.500147,0.119136,0.27793,-0.312844,0.291809,0.252958,-0.524805,-0.155451,-0.105408,0.430736,-0.622492,0.211523,-0.0112479,0.429419,-0.456636,0.371081,0.0498944,0.0138438,-0.139392,0.0740309,0.327907
-0.261887,0.287935,-0.191345,0.385003,-0.173746,0.264535,0.0427551,-0.449849,0.241291,-0.195422,0.263237,0.126336,0.147486,0.615818,-0.178947,-0.37345,-0.374452,0.918113,-0.00151624,-0.153873,0.151094,-0.00992563,-0.256395,-0.00606119,0.0122364,-0.128347,-0.00283621,-0.0511979,0.532303,-0.605827,-0.021797,0.039151,0.613382,0.196212,0.303192,-0.215943,0.00248014,-0.232953,-0.0693397,0.0672069
-0.105995,0.273183,-0.0470225,0.293351,0.0629529,0.434789,0.0121766,-0.071927,-0.109368,-0.454079,0.133614,0.287005,-0.257622,0.0945693,-0.3363,-0.621144,-0.222064,0.652896,0.3065,-0.252554,-0.0179788,0.14526,-0.423741,-0.0608278,0.520109,0.0503899,0.297565,0.214392,0.0427033,-0.260587,-0.070095,-0.158613,-0.107146,-0.203554,0.431718,-0.128911,0.0285141,-0.0119301,-0.146947,0.19853
-0.183304,-0.0440505,-0.258766,0.255313,-0.382111,0.436043,0.476117,0.0763626,-0.218709,-0.538014,-0.181764,0.145935,-0.142718,0.158004,0.263251,-0.560911,-0.267129,0.805325,0.212497,-0.260706,0.23537,0.245439,-0.238685,0.00967733,0.50001,0.592481,-0.281629,0.129602,0.0230567,-0.527682,-0.164558,-0.263167,0.118915,-0.0679812,0.346247,0.205014,-0.0683817,0.410609,0.0156574,0.338868
-0.50184,-0.0801173,0.188029,0.0218265,-0.164616,0.220244,0.441683,0.513497,-0.264159,-0.265868,0.0573526,0.244426,-0.0125009,0.0659163,0.423105,-0.76189,-0.108177,0.222825,-0.0605743,0.333857,0.412976,-0.0864042,0.239046,0.206665,0.297381,0.280856,-0.217967,0.0260958,0.210458,-0.619183,0.312999,-0.449703,0.167734,-0.181799,0.214063,0.299156,0.00432662,0.0136035,0.0483354,0.470498
0.139587,-0.152253,0.00531988,-0.0560007,0.248742,0.0510806,0.407852,0.168682,-0.23081,-0.385046,0.3334,0.365793,-0.266564,0.250395,0.131621,-0.710379,0.724413,0.445525,0.0282443,0.248467,0.148315,-0.468366,0.306441,-0.113415,-0.204438,0.0291949,0.227012,0.216391,-0.0752589,-0.0854594,0.373899,0.196685,-0.0212879,-0.4307,0.255359,0.151169,-0.215883,0.0251897,0.0593778,0.0841882
-0.389119,0.0149512,0.45924,0.071275,0.174219,0.112135,0.114354,0.156377,0.315864,-0.365012,-0.45414,0.0504363,-0.257539,0.367333,-0.242549,-0.710194,0.44397,0.211707,-0.0708741,0.150225,-0.207747,0.119776,0.0848595,-0.0711944,-0.108229,-0.249892,0.262217,0.257136,0.253699,-0.511222,0.602964,-0.322826,0.0256862,-0.280334,0.29351,0.310228,0.211153,-0.356931,-0.138051,0.323875
-0.264608,-0.0711523,0.235643,-0.479139,0.255845,-0.00326867,0.330402,0.572169,0.153315,-0.351389,-0.286468,-0.0997241,-0.285758,-0.100612,0.225743,-0.270047,0.469687,-0.0889075,-0.0257082,-0.177222,0.303561,0.0659159,0.305855,-0.202691,0.24892,-0.190409,0.078095,0.12526,-0.132937,-0.600877,0.355415,0.0172467,-0.157952,-0.50117,0.110714,-0.0476098,0.0429437,0.106007,0.133342,0.0557001
-0.0897006,-0.150309,0.0484123,-0.153697,-0.098953,0.0269322,0.239214,0.291811,0.0165023,-0.20144,-0.159372,-0.137241,-0.307528,0.0588877,0.220479,-0.246754,-0.320195,-0.124197,-0.0199332,-0.354573,0.335495,0.0151941,-0.103201,-0.0130211,0.17139,-0.33375,-0.0521778,0.134632,-0.227492,-0.146107,0.109367,0.0164058,0.125518,-0.343238,0.0622156,0.0870141,0.048561,0.308027,-0.0927471,0.133088
-0.456815,-0.0931906,0.302086,0.246348,0.413021,-0.219702,0.117847,0.19339,0.286918,-0.360444,-0.788432,0.0769692,-0.148191,0.0508557,0.114946,-0.317759,-0.11323,-0.0256335,-0.0515683,-0.767553,0.341921,0.528993,0.144112,0.0690203,0.130777,-0.40667,0.139786,0.0109265,-0.109742,-0.384186,0.199999,-0.314762,-0.28947,0.165848,0.540563,0.268877,0.0550602,0.0302032,-0.0880146,0.53191
0.530878,-0.396264,0.248198,0.0110551,-0.219857,0.128699,0.197695,-0.13912,0.358294,-0.206009,-0.342036,-0.243898,-0.548419,0.334517,-0.0263785,-0.174136,-0.534537,0.36206,0.0299057,-0.758733,0.105126,-0.183843,-0.0536158,0.0605894,-0.148721,-0.417136,0.208849,0.22565,-0.210588,-0.443689,-0.31663,0.324668,0.128437,0.0134819,0.338451,0.199027,0.357076,0.387561,-0.0966909,0.27847
0.472765,-0.206578,-0.251157,0.368098,-0.509824,0.204546,0.0960052,-0.180509,-0.00693477,-0.0180639,-0.396933,0.30962,-0.290096,0.392674,0.227688,-0.19646,-0.68046,0.715395,-0.0321301,-0.384735,-0.501182,-0.0189569,0.149385,0.0396712,0.0126577,-0.109636,-0.110448,0.193155,0.0896341,0.0701218,-0.341871,0.18776,0.511173,0.448882,0.0890173,-0.175773,0.180613,0.331939,-0.119261,0.0900687
0.193646,-0.0159834,-0.633657,0.0693826,0.480425,-0.0532925,-0.221464,0.054644,0.134276,-0.0480951,0.320733,-0.315498,-0.377812,-0.038525,0.223328,-0.152368,-0.251582,0.101849,-0.141922,-0.727299,0.0882722,-0.363047,0.274921,0.125889,0.299535,-0.237117,-0.140228,-0.0414297,0.0594022,0.187121,-0.0107094,0.308662,-0.137358,-0.26047,0.347826,-0.109378,-0.121446,0.0571667,-0.0688684,0.233334
0.383933,-0.0601656,-0.375896,-0.132295,0.140723,-0.0515565,0.0252459,-0.121906,0.101443,-0.0878221,0.288843,-0.159563,-0.662735,-0.0706044,-0.024115,-0.0690134,-0.19867,0.163611,0.0496604,-0.871336,0.0270668,-0.406685,0.213557,0.393621,0.17586,-0.284562,0.185876,0.448803,-0.673921,-0.0937485,-0.496116,0.304467,-0.0167624,-0.52399,0.322701,0.117234,-0.213325,0.449006,0.0789569,0.0544657
-0.0889729,0.195585,-0.404134,0.0741132,-0.0733862,0.241291,-0.134681,-0.0726062,0.109072,-0.0151065,-0.557255,0.396863,-0.407463,0.149477,-0.227198,0.342541,-0.481665,-0.130032,-0.171985,-0.616044,0.118066,0.343172,0.0131324,0.14051,0.344587,0.465599,-0.0502505,0.341137,-0.290669,0.0115858,-0.506812,-0.502081,-0.330755,0.14438,0.182583,-0.125027,-0.337626,0.0860218,0.039663,-0.0217696
0.367904,-0.139355,-0.342388,0.160933,0.0557671,0.14596,0.0851553,-0.231196,-0.0591401,-0.253266,-0.106062,0.433766,-0.507017,0.475906,-0.325701,0.0587871,-0.397989,0.731344,-0.205159,-0.646398,-0.0246121,0.0314159,-0.00827613,-0.220288,-0.317007,0.455453,0.0871015,0.254792,-0.402616,0.120732,-0.548428,-0.484546,-0.112084,0.387235,0.452512,0.0757409,-0.243186,0.0310848,-0.333252,0.160531
0.0176047,0.298996,-0.97715,0.133235,0.0112518,-0.108901,-0.120807,-0.0446491,-0.168266,0.289579,0.744666,0.588785,-0.556802,-0.113435,-0.174366,0.0697485,-0.523056,-0.446163,-0.0462916,-0.783836,0.385367,-0.355278,0.236653,0.411134,0.163433,0.05326,0.063824,0.0317635,-0.190121,-0.00414843,-0.148684,0.194324,0.540164,-0.319809,0.360655,-0.37352,-0.79011,-0.23212,0.172317,0.0281793
0.588782,0.254205,-0.619436,0.360335,0.285745,0.378269,0.051202,-0.168263,0.25888,-0.128729,0.0103197,0.367253,-0.481294,-0.0129459,-0.414013,0.0258122,-0.333431,0.034312,0.247292,-0.960674,0.332672,0.152795,0.376573,0.265066,0.312266,0.0403313,0.381057,0.450414,-0.403939,-0.0545415,-0.442371,-0.185342,0.150211,-0.419962,0.57132,-0.303176,-0.372837,0.00767842,-0.129663,0.266072
0.0326874,0.246059,-0.39333,0.250792,0.137823,0.235941,-0.156167,-0.0775892,-0.0977775,-0.338786,0.273274,0.106959,-0.671706,-0.0224323,-0.183267,-0.28351,-0.333384,0.0745148,0.226725,-0.498309,0.496618,-0.38558,-0.132844,0.334656,0.440544,0.101672,-0.0693684,-0.248805,0.15477,-0.233434,-0.265865,-0.0742732,0.16791,0.058851,0.51713,-0.180767,-0.0147615,0.0435877,0.192079,0.205752
0.0842005,0.356837,-0.340505,0.280624,0.165329,0.23216,-0.438499,-0.180312,-0.293576,-0.120438,0.249668,-0.0448513,-0.633232,-0.0161486,-0.138509,-0.365754,-0.541797,0.28709,0.288507,-0.432194,0.512092,-0.17276,-0.356246,0.350372,0.516026,0.079573,-0.0632505,-0.205492,0.169359,-0.36445,-0.33015,0.0659251,0.346399,-0.0422027,0.760997,-0.209345,-0.20896,0.00299419,0.0975593,0.303239
0.0358124,0.298657,-0.566422,-0.00542451,0.532051,-0.297633,-0.445248,-0.0623748,-0.337841,-0.190931,0.419487,0.190971,-0.635963,0.0579846,-0.080261,-0.55592,-0.168827,0.0960104,0.112354,-0.50176,0.648287,-0.465358,-0.505154,0.3939,0.45151,-0.0988688,-0.233598,-0.432433,0.290825,-0.414252,-0.036719,-0.0755863,0.403674,-0.0965494,0.782119,-0.115504,-0.285672,0.0661126,0.11403,0.304088
0.0194297,-0.0130088,-0.0229541,0.345765,0.293427,-0.3642,0.0326617,-0.0160447,-0.00299464,-0.451533,0.0440885,0.16421,-0.162146,0.422242,-0.0858356,-0.78475,-0.060246,0.242079,-0.208239,-0.0933935,-0.000984493,-0.0921973,0.094326,0.153914,0.238404,-0.253465,-0.207235,-0.344339,0.0391113,-0.734267,0.243693,0.0608218,-0.0559551,-0.169526,0.450179,0.0767763,0.0408737,-0.161943,0.349331,0.246767
-0.409925,0.268787,0.0414792,0.110321,0.187849,0.0292226,0.355701,0.402403,-0.176185,-0.828091,-0.0545183,0.307591,-0.215926,0.211753,0.329511,-0.661312,0.0219906,-0.130298,-0.0690999,-0.152434,0.136957,-0.0833921,0.145321,0.1796,0.531825,0.00775289,-0.136161,0.0804905,-0.0601181,-0.156882,0.20265,-0.239852,-0.0495229,-0.236218,0.372912,0.178014,-0.227808,0.115433,0.513682,0.594476
-0.396105,-0.256356,0.294411,0.0926892,0.0849009,0.0384513,0.698072,0.355605,-0.0717226,-0.98306,-0.0887561,-0.0200443,-0.415524,0.529988,0.284204,-0.773696,-0.0156053,0.411206,-0.113286,0.28394,0.329495,-0.13536,-0.05317,-0.202881,-0.128621,0.329722,0.115389,0.0899282,-0.111011,-0.57422,0.0961156,-0.49849,-0.0249047,-0.0556475,0.0444146,0.234181,0.340626,0.190242,0.338293,0.296326
0.0826825,-0.284046,0.210579,0.105482,-0.212605,0.144961,0.550459,0.0617303,-0.107091,-0.446253,-0.144211,0.188071,-0.320811,0.362559,0.150603,-0.490572,-0.113637,0.310349,-0.0338449,0.048514,-0.0528693,-0.0868641,-0.0845952,-0.0851783,-0.268305,0.243526,0.131102,0.209562,-0.0287657,-0.163238,-0.116182,-0.138948,0.10358,-0.226766,0.0628839,0.105245,0.269226,0.228104,0.372121,0.220377
0.160939,-0.410573,0.228879,-0.23465,0.114628,-0.13114,0.153431,0.227992,0.454828,0.199772,-0.011791,-0.757315,-0.246407,0.403539,0.164488,-0.135353,-0.365303,0.29855,0.0399076,-0.246631,0.196048,-0.317896,-0.246187,0.0969507,-0.150741,-0.882216,0.00567566,0.0677062,-0.00346652,-0.431512,0.102464,0.351317,-0.117907,-0.0453798,0.178761,0.111736,0.628588,0.231395,0.000547126,0.0839405
0.258174,-0.145625,-0.335059,-0.0439205,0.0704004,-0.00261239,-0.0418338,0.159983,0.205551,-0.217224,-0.420635,0.081426,-0.415036,-0.472108,0.0707511,-0.138411,-0.36471,-0.176463,0.0665064,-0.388432,0.0538469,0.104056,0.129913,0.102844,0.100096,-0.141276,-0.0727101,0.174002,-0.294225,0.0883722,0.104441,0.0185051,-0.164317,-0.122836,0.24387,0.215058,-0.212267,0.322152,-0.0825307,0.132344
0.395614,0.13858,-0.635287,0.106916,-0.0546584,-0.0920581,-0.580751,0.127608,0.0714363,0.469763,0.352537,-0.410326,-0.446575,-0.124767,0.114022,0.0971872,-0.759032,-0.50066,0.19789,-0.498315,-0.0214161,-0.319334,-0.200973,0.301658,0.151518,-0.236915,-0.478261,-0.0387147,0.254827,0.130697,-0.268093,0.556894,0.153288,0.0540117,-0.0262133,-0.459228,0.138088,0.178849,-0.0600129,-0.146531
0.120332,-0.138822,-0.224387,-0.111501,0.00178069,0.0680073,-0.0416594,0.317982,-0.141694,-0.0674572,0.128714,-0.0735759,-0.308541,0.141404,0.144727,-0.0732872,-0.107085,0.265189,0.144346,-0.491513,0.271356,-0.191706,0.359465,0.112047,0.277408,-0.227706,0.287334,0.282171,-0.301196,-0.0332237,-0.500508,-0.127673,0.350748,-0.177027,0.208858,-0.0723881,-0.161292,0.168316,-0.0693109,0.0225596
0.173756,0.239285,-0.460255,-0.335862,-0.172257,0.273511,0.230903,-0.235517,-0.567915,0.216735,0.521711,0.447687,-0.685119,-0.00286087,0.0641444,-0.0853373,0.125078,0.486748,0.315428,-0.698246,0.0708467,-0.314484,0.264876,0.00631071,0.080281,0.322206,0.463257,0.87011,-0.416053,0.0247902,-0.741885,-0.500682,0.728654,0.0019122,0.214802,-0.187047,-0.245105,0.413103,-0.129978,-0.37557
0.502241,0.372374,-0.240038,0.254528,-0.15381,0.183762,0.00127461,-0.716296,-0.187033,0.161851,-0.0770694,0.867575,-0.253592,0.0400917,-0.330814,0.0596367,-0.406475,0.216195,-0.0503766,-0.568658,-0.253708,0.194284,0.497251,0.109053,0.06403,0.647897,-0.0411304,0.218853,-0.359082,0.17841,-0.577765,0.272507,0.0465971,-0.059177,0.185886,0.00983521,-0.471826,0.311795,0.246823,-0.202331
-0.157925,0.104248,0.254595,0.0960506,-0.043056,0.269175,-0.0593003,-0.207458,-0.0580295,0.253802,0.545061,0.20481,-0.452181,0.0642125,-0.212984,0.211077,0.0248501,0.0464485,0.0440586,-0.118024,-0.00809535,-0.556142,0.0731226,-0.00651947,-0.298296,-0.211279,0.125863,0.115909,-0.188129,-0.312552,-0.0578683,0.304497,0.509764,-0.0711015,0.301439,-0.0566665,0.0485767,-0.0341444,-0.264234,-0.429141
-0.0677519,0.197962,0.0672661,0.537692,-0.158616,0.383748,0.0468636,0.037507,-0.152195,-0.0101071,-0.167576,0.42637,-0.122398,-0.181091,-0.122346,0.0218262,-0.535987,-0.0373071,0.114434,-0.0206173,-0.297601,0.0366281,0.00321611,0.188672,0.215615,0.025625,-0.218221,0.0281611,0.145241,-0.371872,0.029953,0.00383085,0.188185,-0.157663,0.2227,0.245911,0.0185673,0.17663,0.028142,0.274507
0.452983,-0.123458,-0.151748,-0.120345,0.137848,0.331718,0.066625,0.0692861,-0.038676,-0.268011,-0.442916,0.158246,-0.362117,-0.231764,-0.147149,0.103301,-0.23699,0.246327,0.272791,-0.631732,-0.21813,0.0323782,0.23534,-0.291465,-0.307633,0.262136,0.231908,0.274114,-0.717645,0.297183,-0.253703,-0.346977,-0.357451,0.221533,0.159036,0.104869,0.0684117,0.457115,-0.258425,0.0932703
0.0542095,-0.0726677,-0.127863,0.397542,0.0344909,0.130071,-0.208384,-0.232713,0.0959868,-0.115065,0.193637,-0.194534,-0.482341,0.0916967,-0.22837,-0.0864417,-0.271357,0.217062,0.111398,-0.137364,0.136464,-0.306406,-0.551804,0.194813,0.0556201,-0.190685,0.210112,-0.0218516,-0.00946939,-0.217311,-0.135812,-0.0364775,0.231734,-0.0606208,0.376859,0.0439069,0.310392,-0.0769623,0.230977,-0.0828102
0.0456878,0.225829,-0.163127,0.198762,0.00350054,0.280617,-0.290127,-0.258473,-0.121861,-0.319937,0.0978494,0.360556,-0.415623,-0.122114,-0.289501,-0.407553,-0.110953,0.295683,0.181783,-0.0743771,-0.147236,-0.207285,-0.437809,0.215925,0.174653,0.297453,0.0489343,-0.150027,0.11727,-0.264114,-0.110873,-0.00288618,0.106073,0.0961742,0.475251,-0.0273185,0.182245,0.0803719,0.358603,0.0104048
-0.452739,0.234939,-0.435383,0.069411,0.26019,0.0176347,-0.182856,-0.0345127,-0.162914,-0.409308,0.302141,0.248052,-0.286741,-0.104456,-0.0988142,-0.547032,0.076574,-0.0678915,0.0241245,-0.246752,0.202194,-0.301304,-0.42962,0.244414,0.25053,0.0745572,0.0514577,-0.443001,0.0254881,-0.240668,0.151824,-0.281785,0.179623,-0.0502906,0.44579,0.162693,0.113171,-0.044425,0.108013,-0.0965653
-0.243599,0.0420937,-0.25324,0.16283,0.243787,-0.156185,-0.233872,-0.104103,-0.346872,-0.474357,0.136603,-0.115586,-0.373072,0.448786,-0.0263197,-0.663855,-0.213047,0.266213,0.0556848,-0.491052,0.240969,-0.447036,-0.956046,0.154324,0.0301911,-0.0513018,-0.267897,-0.479731,0.41441,-0.367223,-0.164473,-0.391138,0.123635,0.148994,0.559981,-0.142578,0.0973029,-0.19922,-0.135673,0.00346915
-0.0705825,0.0895301,-0.269295,0.607013,0.0303771,-0.139693,0.112925,-0.0851421,-0.246239,-0.348499,0.0832552,0.130918,0.091188,0.607221,0.114867,-0.577963,-0.596937,0.476472,-0.117549,0.0663507,0.0692411,0.0424981,-0.410745,0.112971,0.0978243,0.0455633,-0.418961,-0.326897,0.381973,-0.324941,-0.232861,-0.358059,0.0973919,0.0831715,0.187022,0.0229458,0.153223,-0.231896,0.230802,0.095357
-0.246523,0.0363405,0.04648,0.220768,0.0649798,-0.0765151,0.0400052,-0.0535124,-0.244077,-0.692947,0.0134605,0.0576214,-0.430796,0.474103,0.0294463,-0.807586,-0.297831,0.60731,0.0132715,0.165358,0.401054,-0.311338,-0.412202,-0.11321,-0.0761074,0.0758661,-0.1616,-0.213415,0.445915,-0.693166,-0.173411,-0.141791,0.0146989,-0.0662646,0.168503,-0.161676,0.252424,-0.047827,-0.0411858,0.024271
-0.361057,0.126478,0.150406,0.151107,-0.148537,0.132061,0.0501111,-0.0170324,-0.203456,-0.320654,-0.00437669,0.148431,-0.479994,0.138196,-0.00408208,-0.582743,-0.12931,0.0775002,0.0554513,0.305261,0.591387,-0.297959,-0.490074,0.171871,0.182205,0.150533,-0.21309,-0.0556633,0.483003,-0.602743,-0.0604451,-0.00913446,0.162295,-0.139713,-0.0677214,0.0906601,0.298959,0.119437,0.380977,0.146758